{"learner":{"attributes":{"scikit_learn":"{\"_estimator_type\": \"regressor\"}"},"feature_names":["bld_building_count_scaled","bld_total_footprint_area_scaled","bld_total_wall_surface_area_scaled","bld_far_scaled","bld_area_weighted_height_scaled","bld_height_std_weighted_scaled","bld_height_p10_scaled","bld_height_p90_scaled","bld_height_range_scaled","bld_height_relative_scaled","bld_aspect_ratio_weighted_scaled","bld_compactness_weighted_scaled","bld_wall_to_plan_ratio_scaled","bld_thermal_mass_index_scaled","bld_facade_orientation_entropy_scaled","bld_canyon_width_mean_scaled","bld_courtyard_fraction_scaled","bld_area_weighted_building_year_scaled","bld_age_pre1950_share_scaled","bld_age_1950_1990_share_scaled","bld_age_post1990_share_scaled","bld_frontal_area_density_ns_scaled","bld_frontal_area_density_ew_scaled","bld_has_buildings_scaled","ss_image_count_scaled","ss_building_mean_scaled","ss_road_mean_scaled","ss_sidewalk_mean_scaled","ss_vegetation_mean_scaled","ss_sky_mean_scaled","ss_water_mean_scaled","ss_beautiful_mean_scaled","ss_safe_mean_scaled","ss_wealthy_mean_scaled","ss_boring_mean_scaled","ss_depressing_mean_scaled","urb_node_count_scaled","urb_edge_count_scaled","urb_street_length_scaled","urb_network_degree_scaled","urb_network_betweenness_scaled","urb_network_closeness_scaled","urb_population_popsum_density_scaled","urb_population_children_density_scaled","urb_building_footprint_proportion_scaled","urb_building_building_count_scaled","urb_streetview_green_view_scaled","urb_streetview_sky_view_scaled","urb_streetview_building_view_scaled","urb_streetview_road_view_scaled","urb_streetview_visual_complexity_mean_scaled","urb_street_orientation_index_scaled","urb_meshedness_scaled","urb_connectivity_beta_scaled","urb_canyon_ratio_scaled","urb_has_network_data_scaled","gee_evi_scaled","gee_mndwi_scaled","gee_ndbi_scaled","gee_albedo_scaled","gee_builtup_fraction_remote_scaled","gee_canopy_height_mean_scaled","gee_distance_to_coast_scaled","gee_distance_to_green_scaled","gee_distance_to_water_scaled","gee_emissivity_std_scaled","gee_era5_relative_humidity_mean_scaled","gee_era5_wind_speed_mean_scaled","gee_land_cover_scaled","gee_modis_et_mean_scaled","gee_modis_evaporative_fraction_scaled","gee_relative_elevation_scaled","gee_slope_scaled","gee_vegetation_fraction_scaled","gee_water_fraction_scaled","gee_paved_fraction_scaled","gee_tree_canopy_distance_scaled","gee_dense_vegetation_distance_scaled","gee_tree_canopy_fraction_90m_scaled","gee_tree_canopy_fraction_150m_scaled","gee_tree_canopy_fraction_300m_scaled","gee_impervious_fraction_300m_scaled","gee_vegetation_fraction_90m_scaled","gee_vegetation_fraction_300m_scaled","vox_svf_scaled","vox_gvi_scaled","vox_solar_scaled","vox_solar_daily_summer_scaled","vox_solar_winter_peak_scaled","vox_solar_direct_scaled","vox_solar_seasonal_ratio_scaled","vox_solar_direct_ratio_scaled","vox_urban_heat_island_scaled","vox_evapotranspiration_scaled","vox_canyon_heating_scaled","vox_green_cooling_potential_scaled","vox_shadow_cooling_scaled","vox_solar_contrast_scaled","vox_building_height_mean_scaled","vox_canopy_height_mean_scaled","vox_built_up_ratio_scaled","vox_tree_canopy_ratio_scaled","vox_building_volume_sum_scaled","vox_canopy_volume_sum_scaled","vox_canyon_aspect_ratio_scaled","vox_landcover_impervious_ratio_scaled","vox_landcover_vegetation_ratio_scaled","vox_grid_resolution_m_scaled","x_scaled","y_scaled","derived_height_to_coverage_ratio_scaled","derived_ventilation_proxy_scaled","derived_urban_heat_trap_index_scaled","derived_canyon_sky_openness_scaled","gee_impervious_fraction_neighbor_std_150m_scaled","gee_impervious_fraction_neighbor_mean_300m_scaled","gee_tree_canopy_cover_neighbor_mean_300m_scaled","derived_ventilation_proxy_neighbor_mean_150m_scaled"],"feature_types":["float","float","float","float","float","float","float","float","float","float","float","float","float","float","float","float","float","float","float","float","float","float","float","float","float","float","float","float","float","float","float","float","float","float","float","float","float","float","float","float","float","float","float","float","float","float","float","float","float","float","float","float","float","float","float","float","float","float","float","float","float","float","float","float","float","float","float","float","float","float","float","float","float","float","float","float","float","float","float","float","float","float","float","float","float","float","float","float","float","float","float","float","float","float","float","float","float","float","float","float","float","float","float","float","float","float","float","float","float","float","float","float","float","float","float","float","float","float"],"gradient_booster":{"model":{"gbtree_model_param":{"num_parallel_tree":"1","num_trees":"1021"},"iteration_indptr":[0,1,2,3,4,5,6,7,8,9,10,11,12,13,14,15,16,17,18,19,20,21,22,23,24,25,26,27,28,29,30,31,32,33,34,35,36,37,38,39,40,41,42,43,44,45,46,47,48,49,50,51,52,53,54,55,56,57,58,59,60,61,62,63,64,65,66,67,68,69,70,71,72,73,74,75,76,77,78,79,80,81,82,83,84,85,86,87,88,89,90,91,92,93,94,95,96,97,98,99,100,101,102,103,104,105,106,107,108,109,110,111,112,113,114,115,116,117,118,119,120,121,122,123,124,125,126,127,128,129,130,131,132,133,134,135,136,137,138,139,140,141,142,143,144,145,146,147,148,149,150,151,152,153,154,155,156,157,158,159,160,161,162,163,164,165,166,167,168,169,170,171,172,173,174,175,176,177,178,179,180,181,182,183,184,185,186,187,188,189,190,191,192,193,194,195,196,197,198,199,200,201,202,203,204,205,206,207,208,209,210,211,212,213,214,215,216,217,218,219,220,221,222,223,224,225,226,227,228,229,230,231,232,233,234,235,236,237,238,239,240,241,242,243,244,245,246,247,248,249,250,251,252,253,254,255,256,257,258,259,260,261,262,263,264,265,266,267,268,269,270,271,272,273,274,275,276,277,278,279,280,281,282,283,284,285,286,287,288,289,290,291,292,293,294,295,296,297,298,299,300,301,302,303,304,305,306,307,308,309,310,311,312,313,314,315,316,317,318,319,320,321,322,323,324,325,326,327,328,329,330,331,332,333,334,335,336,337,338,339,340,341,342,343,344,345,346,347,348,349,350,351,352,353,354,355,356,357,358,359,360,361,362,363,364,365,366,367,368,369,370,371,372,373,374,375,376,377,378,379,380,381,382,383,384,385,386,387,388,389,390,391,392,393,394,395,396,397,398,399,400,401,402,403,404,405,406,407,408,409,410,411,412,413,414,415,416,417,418,419,420,421,422,423,424,425,426,427,428,429,430,431,432,433,434,435,436,437,438,439,440,441,442,443,444,445,446,447,448,449,450,451,452,453,454,455,456,457,458,459,460,461,462,463,464,465,466,467,468,469,470,471,472,473,474,475,476,477,478,479,480,481,482,483,484,485,486,487,488,489,490,491,492,493,494,495,496,497,498,499,500,501,502,503,504,505,506,507,508,509,510,511,512,513,514,515,516,517,518,519,520,521,522,523,524,525,526,527,528,529,530,531,532,533,534,535,536,537,538,539,540,541,542,543,544,545,546,547,548,549,550,551,552,553,554,555,556,557,558,559,560,561,562,563,564,565,566,567,568,569,570,571,572,573,574,575,576,577,578,579,580,581,582,583,584,585,586,587,588,589,590,591,592,593,594,595,596,597,598,599,600,601,602,603,604,605,606,607,608,609,610,611,612,613,614,615,616,617,618,619,620,621,622,623,624,625,626,627,628,629,630,631,632,633,634,635,636,637,638,639,640,641,642,643,644,645,646,647,648,649,650,651,652,653,654,655,656,657,658,659,660,661,662,663,664,665,666,667,668,669,670,671,672,673,674,675,676,677,678,679,680,681,682,683,684,685,686,687,688,689,690,691,692,693,694,695,696,697,698,699,700,701,702,703,704,705,706,707,708,709,710,711,712,713,714,715,716,717,718,719,720,721,722,723,724,725,726,727,728,729,730,731,732,733,734,735,736,737,738,739,740,741,742,743,744,745,746,747,748,749,750,751,752,753,754,755,756,757,758,759,760,761,762,763,764,765,766,767,768,769,770,771,772,773,774,775,776,777,778,779,780,781,782,783,784,785,786,787,788,789,790,791,792,793,794,795,796,797,798,799,800,801,802,803,804,805,806,807,808,809,810,811,812,813,814,815,816,817,818,819,820,821,822,823,824,825,826,827,828,829,830,831,832,833,834,835,836,837,838,839,840,841,842,843,844,845,846,847,848,849,850,851,852,853,854,855,856,857,858,859,860,861,862,863,864,865,866,867,868,869,870,871,872,873,874,875,876,877,878,879,880,881,882,883,884,885,886,887,888,889,890,891,892,893,894,895,896,897,898,899,900,901,902,903,904,905,906,907,908,909,910,911,912,913,914,915,916,917,918,919,920,921,922,923,924,925,926,927,928,929,930,931,932,933,934,935,936,937,938,939,940,941,942,943,944,945,946,947,948,949,950,951,952,953,954,955,956,957,958,959,960,961,962,963,964,965,966,967,968,969,970,971,972,973,974,975,976,977,978,979,980,981,982,983,984,985,986,987,988,989,990,991,992,993,994,995,996,997,998,999,1000,1001,1002,1003,1004,1005,1006,1007,1008,1009,1010,1011,1012,1013,1014,1015,1016,1017,1018,1019,1020,1021],"tree_info":[0,0,0,0,0,0,0,0,0,0,0,0,0,0,0,0,0,0,0,0,0,0,0,0,0,0,0,0,0,0,0,0,0,0,0,0,0,0,0,0,0,0,0,0,0,0,0,0,0,0,0,0,0,0,0,0,0,0,0,0,0,0,0,0,0,0,0,0,0,0,0,0,0,0,0,0,0,0,0,0,0,0,0,0,0,0,0,0,0,0,0,0,0,0,0,0,0,0,0,0,0,0,0,0,0,0,0,0,0,0,0,0,0,0,0,0,0,0,0,0,0,0,0,0,0,0,0,0,0,0,0,0,0,0,0,0,0,0,0,0,0,0,0,0,0,0,0,0,0,0,0,0,0,0,0,0,0,0,0,0,0,0,0,0,0,0,0,0,0,0,0,0,0,0,0,0,0,0,0,0,0,0,0,0,0,0,0,0,0,0,0,0,0,0,0,0,0,0,0,0,0,0,0,0,0,0,0,0,0,0,0,0,0,0,0,0,0,0,0,0,0,0,0,0,0,0,0,0,0,0,0,0,0,0,0,0,0,0,0,0,0,0,0,0,0,0,0,0,0,0,0,0,0,0,0,0,0,0,0,0,0,0,0,0,0,0,0,0,0,0,0,0,0,0,0,0,0,0,0,0,0,0,0,0,0,0,0,0,0,0,0,0,0,0,0,0,0,0,0,0,0,0,0,0,0,0,0,0,0,0,0,0,0,0,0,0,0,0,0,0,0,0,0,0,0,0,0,0,0,0,0,0,0,0,0,0,0,0,0,0,0,0,0,0,0,0,0,0,0,0,0,0,0,0,0,0,0,0,0,0,0,0,0,0,0,0,0,0,0,0,0,0,0,0,0,0,0,0,0,0,0,0,0,0,0,0,0,0,0,0,0,0,0,0,0,0,0,0,0,0,0,0,0,0,0,0,0,0,0,0,0,0,0,0,0,0,0,0,0,0,0,0,0,0,0,0,0,0,0,0,0,0,0,0,0,0,0,0,0,0,0,0,0,0,0,0,0,0,0,0,0,0,0,0,0,0,0,0,0,0,0,0,0,0,0,0,0,0,0,0,0,0,0,0,0,0,0,0,0,0,0,0,0,0,0,0,0,0,0,0,0,0,0,0,0,0,0,0,0,0,0,0,0,0,0,0,0,0,0,0,0,0,0,0,0,0,0,0,0,0,0,0,0,0,0,0,0,0,0,0,0,0,0,0,0,0,0,0,0,0,0,0,0,0,0,0,0,0,0,0,0,0,0,0,0,0,0,0,0,0,0,0,0,0,0,0,0,0,0,0,0,0,0,0,0,0,0,0,0,0,0,0,0,0,0,0,0,0,0,0,0,0,0,0,0,0,0,0,0,0,0,0,0,0,0,0,0,0,0,0,0,0,0,0,0,0,0,0,0,0,0,0,0,0,0,0,0,0,0,0,0,0,0,0,0,0,0,0,0,0,0,0,0,0,0,0,0,0,0,0,0,0,0,0,0,0,0,0,0,0,0,0,0,0,0,0,0,0,0,0,0,0,0,0,0,0,0,0,0,0,0,0,0,0,0,0,0,0,0,0,0,0,0,0,0,0,0,0,0,0,0,0,0,0,0,0,0,0,0,0,0,0,0,0,0,0,0,0,0,0,0,0,0,0,0,0,0,0,0,0,0,0,0,0,0,0,0,0,0,0,0,0,0,0,0,0,0,0,0,0,0,0,0,0,0,0,0,0,0,0,0,0,0,0,0,0,0,0,0,0,0,0,0,0,0,0,0,0,0,0,0,0,0,0,0,0,0,0,0,0,0,0,0,0,0,0,0,0,0,0,0,0,0,0,0,0,0,0,0,0,0,0,0,0,0,0,0,0,0,0,0,0,0,0,0,0,0,0,0,0,0,0,0,0,0,0,0,0,0,0,0,0,0,0,0,0,0,0,0,0,0,0,0,0,0,0,0,0,0,0,0,0,0,0,0,0,0,0,0,0,0,0,0,0,0,0,0,0,0,0,0,0,0,0,0,0,0,0,0,0,0,0,0,0,0,0,0,0,0,0,0,0,0,0,0,0,0,0,0,0,0,0,0,0,0,0,0,0,0,0,0,0,0,0,0,0,0,0,0,0,0,0,0,0,0,0,0,0,0,0,0,0,0,0,0,0,0,0,0,0,0,0,0,0,0,0,0,0,0,0,0,0,0,0,0,0,0,0,0,0,0,0,0,0,0,0,0,0,0,0,0,0,0,0,0,0,0,0,0,0,0,0,0,0,0,0,0,0,0,0,0,0,0,0,0,0,0,0,0,0,0,0,0,0,0,0,0,0,0,0,0],"trees":[{"base_weights":[7.2018374E-3,3.4124523E-1,-8.212846E0,-8.435288E-1,1.1256114E0,-1.1006418E1,-6.1891265E0,-1.9396477E0,-1.079643E-1,6.92125E-1,2.367588E0,-6.562294E0,-1.1311071E1,-7.148095E0,-5.19059E0,-5.3438663E0,-1.6744653E0,-1.0626686E0,2.952163E-1,-2.938909E0,8.356859E-1,1.9316387E0,3.342698E0,-3.1202796E-1,-2.3475206E-1,-1.1790223E1,-9.933682E0,-7.4824557E0,-5.6682906E0,-5.471811E0,-9.246357E-1,-2.1832943E-2,-2.3029412E-1,-1.16522945E-1,-5.6519195E-2,3.1648427E-2,-5.723652E-2,2.3180649E-2,-1.7690474E-2,-3.847824E-1,-8.523759E-2,7.7854685E-2,2.4624359E-2,8.420992E-2,5.2109383E-2,1.4790243E-1,7.980966E-2,-4.9840933E-1,-4.4581723E-1,-4.2396665E-1,-3.2614264E-1,-3.4864557E-1,-3.007429E-1,-2.4217363E-1,-1.643511E-1,-2.4616794E-1,-1.874E-1,-9.690154E-2,2.2611696E-2],"categories":[],"categories_nodes":[],"categories_segments":[],"categories_sizes":[],"default_left":[0,0,0,0,0,0,0,0,0,0,0,0,0,0,0,0,0,0,0,0,0,0,0,0,0,0,0,0,0,0,0,0,0,0,0,0,0,0,0,0,0,0,0,0,0,0,0,0,0,0,0,0,0,0,0,0,0,0,0],"id":0,"left_children":[1,3,5,7,9,11,13,15,17,19,21,23,25,27,29,31,33,35,37,39,41,43,45,-1,-1,47,49,51,53,55,57,-1,-1,-1,-1,-1,-1,-1,-1,-1,-1,-1,-1,-1,-1,-1,-1,-1,-1,-1,-1,-1,-1,-1,-1,-1,-1,-1,-1],"loss_changes":[9.456839E4,3.0756406E4,7.5721562E3,1.0628807E4,1.0719664E4,7.3028906E2,7.3030664E2,4.7742656E3,3.0371274E3,7.6956357E3,2.186496E3,1.2289917E1,2.956875E2,1.766836E2,4.5778223E2,3.3341016E2,1.7511592E3,1.3269607E3,1.0421637E3,3.1484272E3,3.5885957E3,2.143418E2,4.6475586E2,0E0,0E0,1.475E1,3.392871E1,4.8078125E1,7.341797E0,1.4009082E2,5.073403E1,0E0,0E0,0E0,0E0,0E0,0E0,0E0,0E0,0E0,0E0,0E0,0E0,0E0,0E0,0E0,0E0,0E0,0E0,0E0,0E0,0E0,0E0,0E0,0E0,0E0,0E0,0E0,0E0],"parents":[2147483647,0,0,1,1,2,2,3,3,4,4,5,5,6,6,7,7,8,8,9,9,10,10,11,11,12,12,13,13,14,14,15,15,16,16,17,17,18,18,19,19,20,20,21,21,22,22,25,25,26,26,27,27,28,28,29,29,30,30],"right_children":[2,4,6,8,10,12,14,16,18,20,22,24,26,28,30,32,34,36,38,40,42,44,46,-1,-1,48,50,52,54,56,58,-1,-1,-1,-1,-1,-1,-1,-1,-1,-1,-1,-1,-1,-1,-1,-1,-1,-1,-1,-1,-1,-1,-1,-1,-1,-1,-1,-1],"split_conditions":[1.4293166E-1,-1.2961668E-1,-2.2952495E0,-4.6157718E-1,9.054299E-1,-1.3508672E-1,-1.1166687E0,-1.0100849E0,-1.4169085E-2,-1.4229927E0,1.3601199E0,-2.4929187E0,-2.483823E0,-1.7767802E0,-7.0642745E-1,1.0562071E-1,-1.0529797E0,-8.660898E-1,9.1734886E-1,-1.4249429E0,-1.0773312E0,-6.149853E-2,-6.149853E-2,-3.1202796E-1,-2.3475206E-1,-9.928347E-1,-2.1887734E0,-1.8939238E0,-9.180906E-1,-1.8756593E0,-1.0946033E0,-2.1832943E-2,-2.3029412E-1,-1.16522945E-1,-5.6519195E-2,3.1648427E-2,-5.723652E-2,2.3180649E-2,-1.7690474E-2,-3.847824E-1,-8.523759E-2,7.7854685E-2,2.4624359E-2,8.420992E-2,5.2109383E-2,1.4790243E-1,7.980966E-2,-4.9840933E-1,-4.4581723E-1,-4.2396665E-1,-3.2614264E-1,-3.4864557E-1,-3.007429E-1,-2.4217363E-1,-1.643511E-1,-2.4616794E-1,-1.874E-1,-9.690154E-2,2.2611696E-2],"split_indices":[74,58,112,81,81,105,83,117,38,81,81,59,115,59,115,108,59,108,70,114,108,74,74,0,0,109,59,112,59,59,59,0,0,0,0,0,0,0,0,0,0,0,0,0,0,0,0,0,0,0,0,0,0,0,0,0,0,0,0],"split_type":[0,0,0,0,0,0,0,0,0,0,0,0,0,0,0,0,0,0,0,0,0,0,0,0,0,0,0,0,0,0,0,0,0,0,0,0,0,0,0,0,0,0,0,0,0,0,0,0,0,0,0,0,0,0,0,0,0,0,0],"sum_hessian":[3.444004E4,3.3095535E4,1.3445035E3,1.318283E4,1.9912707E4,5.6400433E2,7.804992E2,5.29358E3,7.8892505E3,1.4761342E4,5.1513647E3,3.682256E1,5.2718176E2,3.9674057E2,3.8375864E2,3.8193665E2,4.911643E3,2.3423706E3,5.54688E3,5.610731E2,1.4200269E4,3.5608152E3,1.5905493E3,1.6888561E1,1.9934E1,3.8868488E2,1.3849692E2,3.2214536E2,7.45952E1,3.5987988E2,2.3878742E1,1.3992575E1,3.6794406E2,1.0849271E3,3.826716E3,3.4110126E2,2.0012693E3,4.070854E3,1.4760258E3,6.924846E1,4.9182468E2,2.721183E3,1.1479085E4,3.14849E3,4.1232538E2,1.3891388E3,2.0141054E2,3.3283936E2,5.5845528E1,1.2286016E2,1.5636748E1,7.148228E1,2.5066309E2,6.789374E1,6.7014637E0,2.472807E2,1.1259919E2,1.2144992E1,1.1733751E1],"tree_param":{"num_deleted":"0","num_feature":"118","num_nodes":"59","size_leaf_vector":"1"}},{"base_weights":[1.4527448E-2,3.2514572E-1,-7.847452E0,-1.019402E0,9.643497E-1,-1.0553537E1,-5.864309E0,-1.9150968E0,-2.1815468E-1,6.8817306E-1,2.4609978E0,-1.0921285E1,-6.777114E0,-6.670583E0,-4.742554E0,-1.5573039E0,-3.5168242E0,2.3114938E-1,-1.2566856E0,-2.4431484E0,7.943889E-1,1.96194E0,3.2397187E0,-4.76093E-1,-9.8890505E0,-3.257821E-1,-2.3714074E-1,-7.0332103E0,-5.3769865E0,-5.067609E0,-9.7740066E-1,-7.732579E-2,-2.0044528E-2,-1.0205659E-1,-2.2090785E-1,2.2859985E-2,-2.0577753E-2,2.8617226E-2,-6.4682834E-2,-6.569058E-2,-3.5629117E-1,5.5893973E-2,1.9008586E-2,8.9300975E-2,5.7342626E-2,1.5516318E-1,1.1466309E-1,-3.410467E-1,-4.18442E-1,-3.1885156E-1,-2.733035E-1,-2.3403801E-1,-1.7941889E-1,-2.3056354E-1,-1.7128262E-1,-9.3893774E-2,2.1701904E-2],"categories":[],"categories_nodes":[],"categories_segments":[],"categories_sizes":[],"default_left":[0,0,0,0,0,0,0,0,0,0,0,0,0,0,0,0,0,0,0,0,0,0,0,0,0,0,0,0,0,0,0,0,0,0,0,0,0,0,0,0,0,0,0,0,0,0,0,0,0,0,0,0,0,0,0,0,0],"id":1,"left_children":[1,3,5,7,9,11,13,15,17,19,21,23,25,27,29,31,33,35,37,39,41,43,45,-1,47,-1,-1,49,51,53,55,-1,-1,-1,-1,-1,-1,-1,-1,-1,-1,-1,-1,-1,-1,-1,-1,-1,-1,-1,-1,-1,-1,-1,-1,-1,-1],"loss_changes":[8.407217E4,2.8463805E4,6.9934062E3,7.6581973E3,9.277191E3,7.339297E2,6.687832E2,2.8845098E3,2.6288809E3,6.303629E3,1.3554336E3,2.1029297E2,3.5996826E1,1.8804688E2,3.8583008E2,1.3211982E3,1.745331E3,9.0486163E2,9.7723486E2,3.2841702E3,3.3898672E3,2.241836E2,3.1695703E2,0E0,6.111328E0,0E0,0E0,7.692969E1,1.3393066E1,1.1908984E2,5.0075745E1,0E0,0E0,0E0,0E0,0E0,0E0,0E0,0E0,0E0,0E0,0E0,0E0,0E0,0E0,0E0,0E0,0E0,0E0,0E0,0E0,0E0,0E0,0E0,0E0,0E0,0E0],"parents":[2147483647,0,0,1,1,2,2,3,3,4,4,5,5,6,6,7,7,8,8,9,9,10,10,11,11,12,12,13,13,14,14,15,15,16,16,17,17,18,18,19,19,20,20,21,21,22,22,24,24,27,27,28,28,29,29,30,30],"right_children":[2,4,6,8,10,12,14,16,18,20,22,24,26,28,30,32,34,36,38,40,42,44,46,-1,48,-1,-1,50,52,54,56,-1,-1,-1,-1,-1,-1,-1,-1,-1,-1,-1,-1,-1,-1,-1,-1,-1,-1,-1,-1,-1,-1,-1,-1,-1,-1],"split_conditions":[1.4293166E-1,-3.4876382E-1,-2.2952495E0,-2.661906E-1,1.0679526E0,-9.5095724E-1,-1.0067465E0,2.4323893E0,-6.5128796E-2,-1.5136615E0,1.3818693E0,-2.6247382E0,-1.393328E0,-1.7767802E0,-7.0642745E-1,-6.149853E-2,-6.5128796E-2,1.0350899E0,-9.0833807E-1,1.1234308E0,-5.2810353E-1,-6.149853E-2,-1.7936119E0,-4.76093E-1,1.1443771E0,-3.257821E-1,-2.3714074E-1,-8.4100395E-1,-5.720896E-1,-1.8756593E0,-1.0946033E0,-7.732579E-2,-2.0044528E-2,-1.0205659E-1,-2.2090785E-1,2.2859985E-2,-2.0577753E-2,2.8617226E-2,-6.4682834E-2,-6.569058E-2,-3.5629117E-1,5.5893973E-2,1.9008586E-2,8.9300975E-2,5.7342626E-2,1.5516318E-1,1.1466309E-1,-3.410467E-1,-4.18442E-1,-3.1885156E-1,-2.733035E-1,-2.3403801E-1,-1.7941889E-1,-2.3056354E-1,-1.7128262E-1,-9.3893774E-2,2.1701904E-2],"split_indices":[74,58,112,115,115,116,83,80,94,71,23,115,56,59,115,74,94,69,108,76,108,74,83,0,69,0,0,80,85,59,59,0,0,0,0,0,0,0,0,0,0,0,0,0,0,0,0,0,0,0,0,0,0,0,0,0,0],"split_type":[0,0,0,0,0,0,0,0,0,0,0,0,0,0,0,0,0,0,0,0,0,0,0,0,0,0,0,0,0,0,0,0,0,0,0,0,0,0,0,0,0,0,0,0,0,0,0,0,0,0,0,0,0,0,0,0,0],"sum_hessian":[3.4426152E4,3.3118113E4,1.3080387E3,1.0671152E4,2.2446963E4,5.523887E2,7.5565E2,5.038246E3,5.6329067E3,1.8950703E4,3.4962595E3,5.0260977E2,4.977893E1,4.383601E2,3.1728992E2,4.1190576E3,9.1918835E2,3.931977E3,1.7009296E3,6.2137665E2,1.8329326E4,2.1317576E3,1.364502E3,3.3507318E2,1.6753659E2,2.4036581E1,2.574235E1,3.408343E2,9.752581E1,2.9190314E2,2.538676E1,3.225233E3,8.938246E2,5.7564813E2,3.4354025E2,2.7349065E3,1.1970704E3,2.2428485E2,1.4766447E3,5.4461084E2,7.676581E1,7.0048423E3,1.1324484E4,1.627958E3,5.0379947E2,6.841461E2,6.8035583E2,1.5636748E1,1.5189984E2,1.4531163E2,1.9552267E2,7.818374E1,1.9342068E1,1.9506331E2,9.683984E1,1.3653008E1,1.1733751E1],"tree_param":{"num_deleted":"0","num_feature":"118","num_nodes":"57","size_leaf_vector":"1"}},{"base_weights":[-1.5548492E-3,3.0511925E-1,-7.5516872E0,-7.2097945E-1,1.0917652E0,-1.0120204E1,-5.683192E0,-1.6631737E0,-1.5795599E-1,-2.713688E0,1.1890074E0,-1.0496005E1,-6.921771E0,-6.5646224E0,-4.6737194E0,-3.7312875E0,-1.1858532E0,1.8818891E-1,-9.4709855E-1,-8.343078E0,-1.686821E0,8.2460225E-1,1.8608607E0,-1.0832016E1,-9.306146E0,-3.2691997E-1,-2.2593844E-1,-6.850105E0,-5.1732655E0,-4.821245E0,2.5297275E-2,-1.6832525E-1,-5.433332E-2,-7.2180316E-2,-2.4631865E-2,2.7735563E-2,-6.0536214E-3,-9.424384E-2,-1.7883094E-2,-2.949235E-1,-3.9036402E-1,-1.2780605E-1,-3.4148093E-2,4.8927113E-2,1.3237969E-2,1.16244726E-1,5.340543E-2,-4.332535E-1,-4.6581203E-1,-3.9713782E-1,-3.0765352E-1,-3.2025003E-1,-2.7389336E-1,-2.2323453E-1,-1.314735E-1,-2.212467E-1,-1.6195656E-1],"categories":[],"categories_nodes":[],"categories_segments":[],"categories_sizes":[],"default_left":[0,0,0,0,0,0,0,0,0,0,0,0,0,0,0,0,0,0,0,0,0,0,0,0,0,0,0,0,0,0,0,0,0,0,0,0,0,0,0,0,0,0,0,0,0,0,0,0,0,0,0,0,0,0,0,0,0],"id":2,"left_children":[1,3,5,7,9,11,13,15,17,19,21,23,25,27,29,31,33,35,37,39,41,43,45,47,49,-1,-1,51,53,55,-1,-1,-1,-1,-1,-1,-1,-1,-1,-1,-1,-1,-1,-1,-1,-1,-1,-1,-1,-1,-1,-1,-1,-1,-1,-1,-1],"loss_changes":[7.975113E4,2.671666E4,6.4256797E3,7.6190327E3,6.9342207E3,6.466367E2,6.787617E2,5.300795E3,2.456241E3,2.69162E3,4.4716914E3,1.5659375E2,6.4198975E1,1.4807227E2,2.8606006E2,7.492949E2,1.417352E3,9.949147E2,1.8656611E3,6.286133E1,4.716714E2,2.0978838E3,3.4535117E3,6.8125E0,1.6978516E1,0E0,0E0,5.613379E1,1.8398315E1,1.5176074E2,0E0,0E0,0E0,0E0,0E0,0E0,0E0,0E0,0E0,0E0,0E0,0E0,0E0,0E0,0E0,0E0,0E0,0E0,0E0,0E0,0E0,0E0,0E0,0E0,0E0,0E0,0E0],"parents":[2147483647,0,0,1,1,2,2,3,3,4,4,5,5,6,6,7,7,8,8,9,9,10,10,11,11,12,12,13,13,14,14,15,15,16,16,17,17,18,18,19,19,20,20,21,21,22,22,23,23,24,24,27,27,28,28,29,29],"right_children":[2,4,6,8,10,12,14,16,18,20,22,24,26,28,30,32,34,36,38,40,42,44,46,48,50,-1,-1,52,54,56,-1,-1,-1,-1,-1,-1,-1,-1,-1,-1,-1,-1,-1,-1,-1,-1,-1,-1,-1,-1,-1,-1,-1,-1,-1,-1,-1],"split_conditions":[1.4293166E-1,-3.1088436E-2,-2.2952495E0,-4.1826516E-1,-1.6389906E0,-1.6560394E0,-1.0881361E0,-1.0529797E0,-6.5128796E-2,-1.357052E0,3.5698038E-1,-2.5199785E0,-1.4285798E0,-1.7767802E0,-6.235697E-1,-6.149853E-2,-6.777907E-1,6.336537E-2,-1.1572483E0,8.1827366E-1,-8.0239666E-1,-1.0562071E-1,-3.0516657E-1,1.3594612E0,-2.1887734E0,-3.2691997E-1,-2.2593844E-1,-1.8090847E0,-9.0070564E-1,-1.8756593E0,2.5297275E-2,-1.6832525E-1,-5.433332E-2,-7.2180316E-2,-2.4631865E-2,2.7735563E-2,-6.0536214E-3,-9.424384E-2,-1.7883094E-2,-2.949235E-1,-3.9036402E-1,-1.2780605E-1,-3.4148093E-2,4.8927113E-2,1.3237969E-2,1.16244726E-1,5.340543E-2,-4.332535E-1,-4.6581203E-1,-3.9713782E-1,-3.0765352E-1,-3.2025003E-1,-2.7389336E-1,-2.2323453E-1,-1.314735E-1,-2.212467E-1,-1.6195656E-1],"split_indices":[74,58,112,112,60,114,83,59,94,114,105,112,56,59,59,74,58,69,58,88,56,108,114,76,59,0,0,112,59,59,0,0,0,0,0,0,0,0,0,0,0,0,0,0,0,0,0,0,0,0,0,0,0,0,0,0,0],"split_type":[0,0,0,0,0,0,0,0,0,0,0,0,0,0,0,0,0,0,0,0,0,0,0,0,0,0,0,0,0,0,0,0,0,0,0,0,0,0,0,0,0,0,0,0,0,0,0,0,0,0,0,0,0,0,0,0,0],"sum_hessian":[3.444202E4,3.3098016E4,1.3440051E3,1.4362913E4,1.8735104E4,5.6516626E2,7.7883887E2,5.372008E3,8.990905E3,4.664962E2,1.8268607E4,5.0484357E2,6.032265E1,4.144742E2,3.6436465E2,1.0067631E3,4.3652446E3,6.2496987E3,2.7412065E3,7.148228E1,3.9501392E2,1.1845119E4,6.423488E3,3.909187E2,1.1392488E2,3.6188732E1,2.4133915E1,3.424515E2,7.20227E1,3.5452603E2,9.83861E0,8.93204E2,1.1355916E2,2.2752014E3,2.090043E3,2.5703188E3,3.6793796E3,7.744607E2,1.9667458E3,3.3507317E1,3.797496E1,1.5198915E2,2.4302477E2,7.0116133E3,4.8335054E3,2.467518E3,3.9559697E3,1.7870569E2,2.1221301E2,1.0052195E2,1.3402927E1,8.265138E1,2.598001E2,6.5321236E1,6.7014637E0,2.3161838E2,1.2290767E2],"tree_param":{"num_deleted":"0","num_feature":"118","num_nodes":"57","size_leaf_vector":"1"}},{"base_weights":[2.2986466E-3,2.954347E-1,-7.2187634E0,-5.398612E-1,1.1141626E0,-9.671951E0,-5.4755983E0,-2.0100634E0,-6.626855E-2,6.516266E-1,2.080252E0,-1.0009289E1,-5.9991584E0,-6.189911E0,-4.409457E0,-3.3267224E0,-1.1698003E0,9.836045E-1,-4.8671463E-1,9.651547E-1,3.129709E-1,1.7162583E0,2.9418495E0,-1.037214E1,-8.862631E0,-2.0023154E-1,-2.7990577E-1,-6.5333657E0,-4.8571434E0,-1.512552E-1,-4.6418796E0,-3.7394533E-1,-1.2829582E-1,-2.3908125E-2,-7.777983E-2,-3.857296E-2,5.888259E-2,-4.8340477E-2,-4.323887E-3,4.407119E-2,4.023599E-3,9.017993E-5,2.7914047E-2,7.554529E-2,4.4864208E-2,1.3169658E-1,7.807339E-2,-3.8292912E-1,-4.368342E-1,-3.7759173E-1,-2.908318E-1,-3.1067592E-1,-2.6159772E-1,-2.1011707E-1,-1.5126732E-1,2.6610358E-2,-5.0852187E-2,-2.0529439E-1,-1.2814942E-1],"categories":[],"categories_nodes":[],"categories_segments":[],"categories_sizes":[],"default_left":[0,0,0,0,0,0,0,0,0,0,0,0,0,0,0,0,0,0,0,0,0,0,0,0,0,0,0,0,0,0,0,0,0,0,0,0,0,0,0,0,0,0,0,0,0,0,0,0,0,0,0,0,0,0,0,0,0,0,0],"id":3,"left_children":[1,3,5,7,9,11,13,15,17,19,21,23,25,27,29,31,33,35,37,39,41,43,45,47,49,-1,-1,51,53,55,57,-1,-1,-1,-1,-1,-1,-1,-1,-1,-1,-1,-1,-1,-1,-1,-1,-1,-1,-1,-1,-1,-1,-1,-1,-1,-1,-1,-1],"loss_changes":[7.2869055E4,2.2624777E4,5.7183047E3,1.1401667E4,7.464617E3,6.6277734E2,5.8556836E2,4.4116895E3,5.4676694E3,1.1993525E3,1.6934668E3,1.7053906E2,2.5776978E1,1.998789E2,3.1262744E2,2.1646348E3,1.0107351E3,2.9036128E3,2.2801182E3,4.7032324E2,6.023963E2,2.3345801E2,3.7114258E2,6.515625E0,1.7750977E1,0E0,0E0,6.609961E1,1.3183594E1,1.4659755E1,1.26211914E2,0E0,0E0,0E0,0E0,0E0,0E0,0E0,0E0,0E0,0E0,0E0,0E0,0E0,0E0,0E0,0E0,0E0,0E0,0E0,0E0,0E0,0E0,0E0,0E0,0E0,0E0,0E0,0E0],"parents":[2147483647,0,0,1,1,2,2,3,3,4,4,5,5,6,6,7,7,8,8,9,9,10,10,11,11,12,12,13,13,14,14,15,15,16,16,17,17,18,18,19,19,20,20,21,21,22,22,23,23,24,24,27,27,28,28,29,29,30,30],"right_children":[2,4,6,8,10,12,14,16,18,20,22,24,26,28,30,32,34,36,38,40,42,44,46,48,50,-1,-1,52,54,56,58,-1,-1,-1,-1,-1,-1,-1,-1,-1,-1,-1,-1,-1,-1,-1,-1,-1,-1,-1,-1,-1,-1,-1,-1,-1,-1,-1,-1],"split_conditions":[1.4293166E-1,2.8761783E-1,-2.2952495E0,-7.591541E-1,9.054299E-1,-8.9532685E-1,-1.0067465E0,-6.7356354E-1,-4.8585525E-1,2.1124141E-2,1.3601199E0,-2.5199785E0,2.8108463E0,-1.7767802E0,-9.843892E-1,-1.0326108E0,-6.5128796E-2,-1.2000573E0,-6.8379277E-1,1.3737316E0,2.7758956E-1,-6.149853E-2,-4.3280978E-2,-9.880531E-1,-2.1887734E0,-2.0023154E-1,-2.7990577E-1,-1.8090847E0,-1.3910931E0,4.1014305E-1,2.4289651E-1,-3.7394533E-1,-1.2829582E-1,-2.3908125E-2,-7.777983E-2,-3.857296E-2,5.888259E-2,-4.8340477E-2,-4.323887E-3,4.407119E-2,4.023599E-3,9.017993E-5,2.7914047E-2,7.554529E-2,4.4864208E-2,1.3169658E-1,7.807339E-2,-3.8292912E-1,-4.368342E-1,-3.7759173E-1,-2.908318E-1,-3.1067592E-1,-2.6159772E-1,-2.1011707E-1,-1.5126732E-1,2.6610358E-2,-5.0852187E-2,-2.0529439E-1,-1.2814942E-1],"split_indices":[74,81,112,59,81,116,83,112,108,108,81,112,57,59,66,116,94,64,81,66,105,74,54,67,59,0,0,112,81,86,62,0,0,0,0,0,0,0,0,0,0,0,0,0,0,0,0,0,0,0,0,0,0,0,0,0,0,0,0],"split_type":[0,0,0,0,0,0,0,0,0,0,0,0,0,0,0,0,0,0,0,0,0,0,0,0,0,0,0,0,0,0,0,0,0,0,0,0,0,0,0,0,0,0,0,0,0,0,0,0,0,0,0,0,0,0,0,0,0,0,0],"sum_hessian":[3.4424566E4,3.308204E4,1.342528E3,1.6375309E4,1.670673E4,5.568563E2,7.8567163E2,3.9893242E3,1.2385984E4,1.1298294E4,5.4084375E3,5.0931122E2,4.754511E1,4.6916806E2,3.1650357E2,1.5535492E3,2.4357751E3,3.5415771E3,8.844407E3,5.8661606E3,5.4321333E3,3.8031702E3,1.6052671E3,3.8421722E2,1.2509399E2,1.9129782E1,2.8415327E1,3.7164224E2,9.752581E1,1.6451475E1,3.000521E2,6.4780815E1,1.4887683E3,1.3130278E3,1.1227473E3,6.500041E2,2.891573E3,3.2064417E3,5.637966E3,5.3022227E3,5.6393805E2,2.9037559E3,2.5283777E3,3.303971E3,4.991993E2,1.3322039E3,2.7306314E2,3.574114E1,3.484761E2,1.11691055E2,1.3402927E1,7.818374E1,2.9345853E2,8.353049E1,1.3995322E1,9.475708E0,6.9757676E0,2.5314183E2,4.6910244E1],"tree_param":{"num_deleted":"0","num_feature":"118","num_nodes":"59","size_leaf_vector":"1"}},{"base_weights":[1.42583E-2,-5.3545666E0,3.401804E-1,-8.913888E0,-3.5937479E0,-7.835589E-1,9.2589444E-1,-6.778162E0,-9.658483E0,-4.634821E0,-7.922678E-1,-1.5715724E0,-9.571544E-2,5.692771E-1,2.0221083E0,-5.009428E0,-7.307945E0,-9.172513E0,-4.284484E-1,-3.3900552E0,-5.3964925E0,1.2620555E-1,-1.9628791E0,-4.829011E0,-1.4146748E0,2.7317366E-1,-9.1244614E-1,-2.1404436E0,6.697184E-1,1.6756339E0,2.853695E0,-1.7136675E-1,-2.2430311E-1,-2.8492942E-1,-3.3175564E-1,-3.9137748E-1,-3.3198884E-1,-1.6025987E-1,-3.9151397E-2,-2.043369E-1,-2.546797E-1,3.808037E-2,-1.7783068E-2,-2.9770695E-2,-1.15892135E-1,-8.6083665E-2,-2.0437096E-1,-6.871027E-2,-1.4229031E-2,-1.9373707E-2,1.861194E-2,8.070324E-3,-4.9706135E-2,-5.7653528E-2,-2.0911017E-1,1.258099E-1,2.4822343E-2,4.488243E-2,7.308162E-2,1.2754755E-1,7.265383E-2],"categories":[],"categories_nodes":[],"categories_segments":[],"categories_sizes":[],"default_left":[0,0,0,0,0,0,0,0,0,0,0,0,0,0,0,0,0,0,0,0,0,0,0,0,0,0,0,0,0,0,0,0,0,0,0,0,0,0,0,0,0,0,0,0,0,0,0,0,0,0,0,0,0,0,0,0,0,0,0,0,0],"id":4,"left_children":[1,3,5,7,9,11,13,15,17,19,21,23,25,27,29,31,33,35,-1,37,39,41,43,45,47,49,51,53,55,57,59,-1,-1,-1,-1,-1,-1,-1,-1,-1,-1,-1,-1,-1,-1,-1,-1,-1,-1,-1,-1,-1,-1,-1,-1,-1,-1,-1,-1,-1,-1],"loss_changes":[6.032273E4,1.2350043E4,2.1392236E4,1.0079375E3,3.8495742E3,6.035767E3,8.351502E3,1.4221387E2,1.0344531E2,9.0377344E2,3.8570065E2,2.6486963E3,1.7917842E3,4.3881885E3,1.5082656E3,2.8411255E0,1.4830078E1,3.851367E1,0E0,4.0697705E2,1.9604102E2,8.782049E1,1.5963922E2,4.399463E1,1.2433398E3,5.244165E2,5.738638E2,1.2513E3,2.704835E3,1.7162207E2,3.5105762E2,0E0,0E0,0E0,0E0,0E0,0E0,0E0,0E0,0E0,0E0,0E0,0E0,0E0,0E0,0E0,0E0,0E0,0E0,0E0,0E0,0E0,0E0,0E0,0E0,0E0,0E0,0E0,0E0,0E0,0E0],"parents":[2147483647,0,0,1,1,2,2,3,3,4,4,5,5,6,6,7,7,8,8,9,9,10,10,11,11,12,12,13,13,14,14,15,15,16,16,17,17,19,19,20,20,21,21,22,22,23,23,24,24,25,25,26,26,27,27,28,28,29,29,30,30],"right_children":[2,4,6,8,10,12,14,16,18,20,22,24,26,28,30,32,34,36,-1,38,40,42,44,46,48,50,52,54,56,58,60,-1,-1,-1,-1,-1,-1,-1,-1,-1,-1,-1,-1,-1,-1,-1,-1,-1,-1,-1,-1,-1,-1,-1,-1,-1,-1,-1,-1,-1,-1],"split_conditions":[-1.5044352E0,-1.5783871E0,-2.638198E-1,1.5780817E0,-1.381191E-1,-3.0222863E-1,9.054299E-1,-1.2069939E-2,1.3594612E0,1.7043629E0,-3.451355E-2,-1.1549602E0,-6.4476416E-2,-1.4229927E0,1.3601199E0,2.8108463E0,4.9381283E-1,-2.1887734E0,-4.284484E-1,-2.6661154E-2,8.321083E-1,-4.4162935E-1,8.4129715E-1,2.0695431E0,-2.6661154E-2,-1.4597578E0,-3.62658E-2,1.1531962E0,-1.6779721E0,-4.758008E-2,-4.3280978E-2,-1.7136675E-1,-2.2430311E-1,-2.8492942E-1,-3.3175564E-1,-3.9137748E-1,-3.3198884E-1,-1.6025987E-1,-3.9151397E-2,-2.043369E-1,-2.546797E-1,3.808037E-2,-1.7783068E-2,-2.9770695E-2,-1.15892135E-1,-8.6083665E-2,-2.0437096E-1,-6.871027E-2,-1.4229031E-2,-1.9373707E-2,1.861194E-2,8.070324E-3,-4.9706135E-2,-5.7653528E-2,-2.0911017E-1,1.258099E-1,2.4822343E-2,4.488243E-2,7.308162E-2,1.2754755E-1,7.265383E-2],"split_indices":[59,62,58,84,112,81,81,105,76,57,52,117,30,81,81,57,87,59,0,43,76,77,114,116,43,67,64,77,114,16,54,0,0,0,0,0,0,0,0,0,0,0,0,0,0,0,0,0,0,0,0,0,0,0,0,0,0,0,0,0,0],"split_type":[0,0,0,0,0,0,0,0,0,0,0,0,0,0,0,0,0,0,0,0,0,0,0,0,0,0,0,0,0,0,0,0,0,0,0,0,0,0,0,0,0,0,0,0,0,0,0,0,0,0,0,0,0,0,0,0,0,0,0,0,0],"sum_hessian":[3.4473285E4,1.9725795E3,3.2500707E4,6.5227576E2,1.3203037E3,1.1135655E4,2.136505E4,1.697704E2,4.8250537E2,9.6235004E2,3.5795367E2,5.1895693E3,5.946086E3,1.6121294E4,5.2437573E3,4.0208782E1,1.2956163E2,2.7476E2,2.0774536E2,3.6626666E2,5.960834E2,2.0071436E2,1.5723932E2,2.3785484E2,4.951715E3,4.096107E3,1.849979E3,5.7585065E2,1.5545443E4,3.7025623E3,1.5411951E3,1.3402927E1,2.6805855E1,7.818374E1,5.1377888E1,2.3008357E2,4.4676422E1,3.0861426E2,5.765241E1,3.5469424E2,2.4138913E2,8.2792885E1,1.1792147E2,6.2624874E1,9.461445E1,6.6475673E0,2.3120728E2,4.064925E3,8.867897E2,7.7904974E2,3.317057E3,3.7389984E2,1.4760791E3,4.5643076E2,1.1941989E2,4.7481076E2,1.5070633E4,4.2759534E2,3.2749668E3,1.2984542E3,2.4274075E2],"tree_param":{"num_deleted":"0","num_feature":"118","num_nodes":"61","size_leaf_vector":"1"}},{"base_weights":[8.841831E-4,2.6649153E-1,-6.6855974E0,-6.4543355E-1,9.6731234E-1,-8.878429E0,-5.028633E0,-1.4633393E0,5.4089967E-3,7.131422E-1,2.1528296E0,-9.212617E0,-6.1001115E0,-5.7343554E0,-4.0636597E0,-2.8413844E0,-1.0503913E0,-7.7049506E-1,3.0871895E-1,-2.4726415E0,8.05854E-1,1.7148473E0,2.8142462E0,-4.071604E-1,-8.505396E0,-2.8420225E-1,-2.0317143E-1,-5.844574E0,-2.755715E0,-4.2812047E0,-6.300181E-1,-1.3880436E-1,-3.3607807E-2,-3.618899E-2,-9.530123E-2,-5.4542676E-2,9.1281085E-4,2.4318678E-2,-1.50918225E-2,-3.1079125E-1,-6.207168E-2,1.3392802E-1,3.096266E-2,7.800307E-2,4.8871044E-2,1.2041657E-1,2.9132301E-2,-2.8041375E-1,-3.6022383E-1,-2.17527E-1,-2.5535476E-1,-1.4248864E-1,-7.235154E-2,-1.5763716E-1,-2.14124E-1,-7.67497E-2,2.2027275E-2],"categories":[],"categories_nodes":[],"categories_segments":[],"categories_sizes":[],"default_left":[0,0,0,0,0,0,0,0,0,0,0,0,0,0,0,0,0,0,0,0,0,0,0,0,0,0,0,0,0,0,0,0,0,0,0,0,0,0,0,0,0,0,0,0,0,0,0,0,0,0,0,0,0,0,0,0,0],"id":5,"left_children":[1,3,5,7,9,11,13,15,17,19,21,23,25,27,29,31,33,35,37,39,41,43,45,-1,47,-1,-1,49,51,53,55,-1,-1,-1,-1,-1,-1,-1,-1,-1,-1,-1,-1,-1,-1,-1,-1,-1,-1,-1,-1,-1,-1,-1,-1,-1,-1],"loss_changes":[6.1303215E4,2.1218156E4,4.7708047E3,7.680207E3,5.655662E3,5.0051562E2,5.009453E2,3.636255E3,1.8908408E3,4.566684E3,9.572998E2,1.614336E2,3.9031494E1,1.3417969E2,2.3659229E2,1.4654873E3,1.105938E3,9.6330176E2,1.0651171E3,2.1369207E3,2.2735635E3,1.6826123E2,2.0838477E2,0E0,2.8738281E1,0E0,0E0,5.8586914E1,7.7443542E0,1.1869238E2,2.8062532E1,0E0,0E0,0E0,0E0,0E0,0E0,0E0,0E0,0E0,0E0,0E0,0E0,0E0,0E0,0E0,0E0,0E0,0E0,0E0,0E0,0E0,0E0,0E0,0E0,0E0,0E0],"parents":[2147483647,0,0,1,1,2,2,3,3,4,4,5,5,6,6,7,7,8,8,9,9,10,10,11,11,12,12,13,13,14,14,15,15,16,16,17,17,18,18,19,19,20,20,21,21,22,22,24,24,27,27,28,28,29,29,30,30],"right_children":[2,4,6,8,10,12,14,16,18,20,22,24,26,28,30,32,34,36,38,40,42,44,46,-1,48,-1,-1,50,52,54,56,-1,-1,-1,-1,-1,-1,-1,-1,-1,-1,-1,-1,-1,-1,-1,-1,-1,-1,-1,-1,-1,-1,-1,-1,-1,-1],"split_conditions":[1.4293166E-1,-3.1088436E-2,-2.2952495E0,-2.517021E-1,1.074645E0,-9.9952644E-1,-6.928111E-1,-1.0529797E0,-1.4169085E-2,-1.6921169E0,9.159813E-1,-2.7435367E0,-1.3492783E0,-9.3867755E-1,-7.0642745E-1,-6.149853E-2,2.1868362E0,-5.856371E-1,1.0350899E0,-1.357052E0,-1.8163453E0,-6.149853E-2,8.82441E-1,-4.071604E-1,1.007538E0,-2.8420225E-1,-2.0317143E-1,2.8108463E0,4.5504764E-1,4.3007293E0,-1.0946033E0,-1.3880436E-1,-3.3607807E-2,-3.618899E-2,-9.530123E-2,-5.4542676E-2,9.1281085E-4,2.4318678E-2,-1.50918225E-2,-3.1079125E-1,-6.207168E-2,1.3392802E-1,3.096266E-2,7.800307E-2,4.8871044E-2,1.2041657E-1,2.9132301E-2,-2.8041375E-1,-3.6022383E-1,-2.17527E-1,-2.5535476E-1,-1.4248864E-1,-7.235154E-2,-1.5763716E-1,-2.14124E-1,-7.67497E-2,2.2027275E-2],"split_indices":[74,58,112,115,115,116,79,59,38,60,60,115,56,115,115,74,80,58,69,114,114,74,64,0,66,0,0,57,86,57,59,0,0,0,0,0,0,0,0,0,0,0,0,0,0,0,0,0,0,0,0,0,0,0,0,0,0],"split_type":[0,0,0,0,0,0,0,0,0,0,0,0,0,0,0,0,0,0,0,0,0,0,0,0,0,0,0,0,0,0,0,0,0,0,0,0,0,0,0,0,0,0,0,0,0,0,0,0,0,0,0,0,0,0,0,0,0],"sum_hessian":[3.4517707E4,3.319935E4,1.318353E3,1.4426741E4,1.8772613E4,5.665958E2,7.5175714E2,6.392756E3,8.033985E3,1.5459056E4,3.3135566E3,5.0484357E2,6.1752254E1,4.3291547E2,3.188417E2,1.4733182E3,4.9194375E3,2.2576038E3,5.7763813E3,4.3681116E2,1.5022244E4,1.9945381E3,1.3190186E3,2.7922763E2,2.2561594E2,3.7618336E1,2.4133915E1,4.1702863E2,1.588683E1,2.997049E2,1.9136797E1,1.1874802E3,2.8583798E2,4.288834E3,6.306036E2,1.344336E3,9.1326776E2,4.0979517E3,1.6784296E3,7.148228E1,3.653289E2,3.818509E2,1.4640394E4,1.545984E3,4.4855402E2,1.2735352E3,4.54834E1,1.787057E1,2.0774536E2,1.3259967E2,2.8442896E2,8.935285E0,6.9515452E0,1.9098898E2,1.0871592E2,9.298186E0,9.83861E0],"tree_param":{"num_deleted":"0","num_feature":"118","num_nodes":"57","size_leaf_vector":"1"}},{"base_weights":[6.97008E-4,2.6124427E-1,-6.411148E0,7.0909566E-1,-8.792862E-1,-8.467266E0,-4.9318795E0,4.8515937E-1,2.0541553E0,-6.0195816E-1,-2.7780426E0,-9.1674795E0,-6.660788E0,-5.688665E0,-4.097858E0,-2.4731886E0,5.784286E-1,1.6181872E0,2.7170293E0,-8.697194E-1,1.9013636E-1,-1.789792E0,-4.431454E0,-3.875658E-1,-3.4148178E-1,-6.8961616E0,-9.846583E-2,-6.869223E0,-5.245695E0,-4.3910174E0,-1.844038E0,-3.1059596E-1,-7.770114E-2,4.36732E-2,9.503667E-3,7.4168004E-2,4.6848267E-2,1.2073773E-1,5.810062E-2,-2.7460873E-2,-7.6983586E-2,1.2512234E-2,-5.1375456E-2,-8.610062E-2,-1.9682502E-2,-7.945802E-2,-1.8666488E-1,-3.0679753E-1,-2.4815497E-1,-3.086531E-1,-2.26782E-1,-2.2877271E-1,-1.8132533E-1,-1.996183E-1,-1.4344661E-1,-1.0418192E-1,1.1800296E-2],"categories":[],"categories_nodes":[],"categories_segments":[],"categories_sizes":[],"default_left":[0,0,0,0,0,0,0,0,0,0,0,0,0,0,0,0,0,0,0,0,0,0,0,0,0,0,0,0,0,0,0,0,0,0,0,0,0,0,0,0,0,0,0,0,0,0,0,0,0,0,0,0,0,0,0,0,0],"id":6,"left_children":[1,3,5,7,9,11,13,15,17,19,21,23,25,27,29,31,33,35,37,39,41,43,45,-1,-1,47,-1,49,51,53,55,-1,-1,-1,-1,-1,-1,-1,-1,-1,-1,-1,-1,-1,-1,-1,-1,-1,-1,-1,-1,-1,-1,-1,-1,-1,-1],"loss_changes":[5.7339312E4,1.6847627E4,4.0568594E3,7.132908E3,4.895867E3,6.804922E2,4.8135352E2,5.6026733E3,9.742949E2,1.7213513E3,1.9320137E3,1.7132812E1,1.5164795E2,1.9638965E2,2.4203369E2,1.8739475E3,3.2379473E3,1.6148535E2,3.1695605E2,1.248853E3,3.2122397E2,2.6938428E2,4.8668945E1,0E0,0E0,4.5129883E1,0E0,6.53291E1,5.357617E1,1.1657861E2,6.1610764E1,0E0,0E0,0E0,0E0,0E0,0E0,0E0,0E0,0E0,0E0,0E0,0E0,0E0,0E0,0E0,0E0,0E0,0E0,0E0,0E0,0E0,0E0,0E0,0E0,0E0,0E0],"parents":[2147483647,0,0,1,1,2,2,3,3,4,4,5,5,6,6,7,7,8,8,9,9,10,10,11,11,12,12,13,13,14,14,15,15,16,16,17,17,18,18,19,19,20,20,21,21,22,22,25,25,27,27,28,28,29,29,30,30],"right_children":[2,4,6,8,10,12,14,16,18,20,22,24,26,28,30,32,34,36,38,40,42,44,46,-1,-1,48,-1,50,52,54,56,-1,-1,-1,-1,-1,-1,-1,-1,-1,-1,-1,-1,-1,-1,-1,-1,-1,-1,-1,-1,-1,-1,-1,-1,-1,-1],"split_conditions":[1.4293166E-1,1.9808778E-1,-9.430171E-1,1.074645E0,2.0014803E0,-2.483823E0,-1.0739565E0,-1.7286594E0,9.159813E-1,3.1721205E-1,-6.5128796E-2,-9.928347E-1,-1.4472352E0,-1.6984227E0,-9.3867755E-1,-1.4249429E0,-3.5911041E-1,-6.149853E-2,1.5843107E0,1.1467032E0,5.0335014E-1,-1.4271191E-1,1.1629138E0,-3.875658E-1,-3.4148178E-1,-1.6968943E0,-9.846583E-2,-2.0883217E0,-1.7767802E0,-1.8756593E0,-5.566388E-1,-3.1059596E-1,-7.770114E-2,4.36732E-2,9.503667E-3,7.4168004E-2,4.6848267E-2,1.2073773E-1,5.810062E-2,-2.7460873E-2,-7.6983586E-2,1.2512234E-2,-5.1375456E-2,-8.610062E-2,-1.9682502E-2,-7.945802E-2,-1.8666488E-1,-3.0679753E-1,-2.4815497E-1,-3.086531E-1,-2.26782E-1,-2.2877271E-1,-1.8132533E-1,-1.996183E-1,-1.4344661E-1,-1.0418192E-1,1.1800296E-2],"split_indices":[74,65,80,115,80,115,83,60,60,115,94,109,115,115,115,114,108,74,108,66,106,74,18,0,0,114,0,59,59,59,115,0,0,0,0,0,0,0,0,0,0,0,0,0,0,0,0,0,0,0,0,0,0,0,0,0,0],"split_type":[0,0,0,0,0,0,0,0,0,0,0,0,0,0,0,0,0,0,0,0,0,0,0,0,0,0,0,0,0,0,0,0,0,0,0,0,0,0,0,0,0,0,0,0,0,0,0,0,0,0,0,0,0,0,0,0,0],"sum_hessian":[3.4322543E4,3.2982707E4,1.3398356E3,2.3683297E4,9.299411E3,5.597378E2,7.8009784E2,2.0303666E4,3.3796306E3,8.1148135E3,1.1845975E3,4.020878E2,1.5764996E2,4.0760883E2,3.72489E2,6.201811E2,1.9683484E4,2.0397655E3,1.3398651E3,6.064807E3,2.0500063E3,7.4204285E2,4.425547E2,3.5070993E2,5.1377888E1,1.491904E2,8.459563E0,1.0945724E2,2.9815158E2,3.2920258E2,4.3286434E1,6.701463E1,5.5316644E2,8.41122E3,1.1272265E4,1.5362345E3,5.035311E2,1.1787781E3,1.6108704E2,4.989688E3,1.0751191E3,1.9031868E3,1.4681956E2,6.1314624E2,1.288966E2,8.56726E0,4.3398743E2,9.7812515E1,5.1377888E1,7.818374E1,3.1273497E1,2.3249167E2,6.565992E1,2.3047499E2,9.8727585E1,3.3084923E1,1.0201511E1],"tree_param":{"num_deleted":"0","num_feature":"118","num_nodes":"57","size_leaf_vector":"1"}},{"base_weights":[-3.1688437E-3,2.5048718E-1,-6.1724877E0,-4.8049837E-1,9.682754E-1,-8.372885E0,-4.77303E0,-1.8586477E0,-9.904697E-2,5.5243343E-1,1.7974862E0,-8.589004E0,-5.273258E0,-5.3770447E0,-3.7428448E0,-3.12312E0,-1.1357883E0,8.349989E-1,-4.775884E-1,6.5730107E-1,-2.8681222E-1,1.4547596E0,2.5204384E0,-3.7372383E-1,-7.9757037E0,-2.3630013E-1,-1.4003885E-1,-5.572109E0,-3.3847916E0,-3.9557781E0,-1.4410797E0,-2.9700243E-1,-1.1834224E-1,-5.8951292E-2,6.4374427E-3,-3.8490094E-2,5.1500138E-2,-4.461725E-2,-5.058673E-3,3.949761E-2,1.5838552E-2,-2.0348398E-2,1.8669961E-2,6.437306E-2,3.5956707E-2,6.148387E-2,1.1221839E-1,-3.3854967E-1,-2.851403E-1,-2.7187374E-1,-2.208829E-1,-7.8812815E-2,-1.6025141E-1,-1.8363665E-1,-1.3909794E-1,4.928441E-3,-8.9458175E-2],"categories":[],"categories_nodes":[],"categories_segments":[],"categories_sizes":[],"default_left":[0,0,0,0,0,0,0,0,0,0,0,0,0,0,0,0,0,0,0,0,0,0,0,0,0,0,0,0,0,0,0,0,0,0,0,0,0,0,0,0,0,0,0,0,0,0,0,0,0,0,0,0,0,0,0,0,0],"id":7,"left_children":[1,3,5,7,9,11,13,15,17,19,21,23,25,27,29,31,33,35,37,39,41,43,45,-1,47,-1,-1,49,51,53,55,-1,-1,-1,-1,-1,-1,-1,-1,-1,-1,-1,-1,-1,-1,-1,-1,-1,-1,-1,-1,-1,-1,-1,-1,-1,-1],"loss_changes":[5.4013027E4,1.739488E4,4.17866E3,8.634287E3,5.76712E3,3.334336E2,5.0923047E2,3.2523574E3,4.548858E3,9.806648E2,1.3820469E3,8.208594E1,1.7662048E1,1.9466016E2,1.4861963E2,1.4594414E3,8.1537085E2,2.6153289E3,1.9336418E3,7.971885E2,1.8330023E2,2.0077979E2,3.2101465E2,0E0,6.6367188E0,0E0,0E0,1.0719629E2,2.9039612E1,7.153223E1,3.007061E1,0E0,0E0,0E0,0E0,0E0,0E0,0E0,0E0,0E0,0E0,0E0,0E0,0E0,0E0,0E0,0E0,0E0,0E0,0E0,0E0,0E0,0E0,0E0,0E0,0E0,0E0],"parents":[2147483647,0,0,1,1,2,2,3,3,4,4,5,5,6,6,7,7,8,8,9,9,10,10,11,11,12,12,13,13,14,14,15,15,16,16,17,17,18,18,19,19,20,20,21,21,22,22,24,24,27,27,28,28,29,29,30,30],"right_children":[2,4,6,8,10,12,14,16,18,20,22,24,26,28,30,32,34,36,38,40,42,44,46,-1,48,-1,-1,50,52,54,56,-1,-1,-1,-1,-1,-1,-1,-1,-1,-1,-1,-1,-1,-1,-1,-1,-1,-1,-1,-1,-1,-1,-1,-1,-1,-1],"split_conditions":[1.4293166E-1,2.8761783E-1,-2.4434986E0,-8.338327E-1,8.9498377E-1,-9.5095724E-1,-6.928111E-1,-7.525894E-1,-4.8585525E-1,1.3852354E0,1.2990023E0,-2.7435367E0,-8.817818E-1,-1.1001346E0,-1.0521617E0,-8.5484135E-1,-4.425624E-2,-1.2000573E0,-6.6444874E-1,-1.0562071E-1,-6.9216534E-2,-6.149853E-2,-3.451355E-2,-3.7372383E-1,-1.6512743E0,-2.3630013E-1,-1.4003885E-1,-2.184923E0,-3.5205886E-1,2.903974E-1,-5.7044476E-2,-2.9700243E-1,-1.1834224E-1,-5.8951292E-2,6.4374427E-3,-3.8490094E-2,5.1500138E-2,-4.461725E-2,-5.058673E-3,3.949761E-2,1.5838552E-2,-2.0348398E-2,1.8669961E-2,6.437306E-2,3.5956707E-2,6.148387E-2,1.1221839E-1,-3.3854967E-1,-2.851403E-1,-2.7187374E-1,-2.208829E-1,-7.8812815E-2,-1.6025141E-1,-1.8363665E-1,-1.3909794E-1,4.928441E-3,-8.9458175E-2],"split_indices":[74,81,112,59,81,116,79,112,108,66,81,115,56,115,81,80,74,64,81,108,36,74,52,0,62,0,0,81,66,86,7,0,0,0,0,0,0,0,0,0,0,0,0,0,0,0,0,0,0,0,0,0,0,0,0,0,0],"split_type":[0,0,0,0,0,0,0,0,0,0,0,0,0,0,0,0,0,0,0,0,0,0,0,0,0,0,0,0,0,0,0,0,0,0,0,0,0,0,0,0,0,0,0,0,0,0,0,0,0,0,0,0,0,0,0,0,0],"sum_hessian":[3.4514242E4,3.315157E4,1.3626731E3,1.6424754E4,1.6726816E4,5.288886E2,8.337845E2,3.5601665E3,1.2864587E4,1.1140724E4,5.5860913E3,4.9367447E2,3.5214127E1,5.243995E2,3.0938498E2,1.2943678E3,2.2657988E3,3.709798E3,9.154789E3,9.903509E3,1.2372151E3,3.7905842E3,1.7955072E3,3.0156586E2,1.9210861E2,2.8415327E1,6.7987986E0,4.7687625E2,4.7523228E1,2.8285037E2,2.65346E1,8.48852E1,1.2094825E3,1.863313E3,4.0248572E2,6.8833673E2,3.0214612E3,3.434974E3,5.719815E3,4.8358735E3,5.0676353E3,9.712817E2,2.6593338E2,3.2900996E3,5.0048453E2,2.5475711E2,1.5407501E3,1.6753659E2,2.4572033E1,1.0373882E2,3.7313745E2,1.1782089E1,3.574114E1,1.619577E2,1.2089267E2,8.30637E0,1.822823E1],"tree_param":{"num_deleted":"0","num_feature":"118","num_nodes":"57","size_leaf_vector":"1"}},{"base_weights":[1.633656E-3,-5.8218384E0,2.128858E-1,-7.846376E0,-4.169933E0,-5.7433844E-1,9.105246E-1,-5.266686E0,-8.146266E0,-4.612154E0,-1.1448013E0,-1.643299E0,-7.708463E-2,-2.2757664E0,1.0025864E0,-2.3608175E-1,-1.0020479E-1,-7.217575E0,-3.533115E-1,-4.892491E0,-2.9033422E0,1.6179354E-1,-1.824095E0,-4.901832E0,-1.4767672E0,-7.7809584E-1,2.2652344E-1,-6.0728307E0,-1.3783346E0,7.302093E-1,1.8796223E0,-3.1126916E-1,-2.6709282E-1,-2.181996E-1,-1.7494541E-1,-1.363953E-1,-3.875108E-2,-1.0000946E-2,2.9484827E-2,-4.23449E-2,-9.099257E-2,-1.7494701E-1,-3.3754295E-1,-1.7890236E-1,-5.297065E-2,-5.553926E-2,5.27277E-3,2.6112791E-2,-2.1495912E-3,-2.9177386E-1,-1.934565E-1,-1.1026839E-1,-1.3731412E-2,1.2441129E-1,2.6906865E-2,6.405108E-2,1.016676E-1],"categories":[],"categories_nodes":[],"categories_segments":[],"categories_sizes":[],"default_left":[0,0,0,0,0,0,0,0,0,0,0,0,0,0,0,0,0,0,0,0,0,0,0,0,0,0,0,0,0,0,0,0,0,0,0,0,0,0,0,0,0,0,0,0,0,0,0,0,0,0,0,0,0,0,0,0,0],"id":8,"left_children":[1,3,5,7,9,11,13,15,17,19,21,23,25,27,29,-1,-1,31,-1,33,35,37,39,41,43,45,47,49,51,53,55,-1,-1,-1,-1,-1,-1,-1,-1,-1,-1,-1,-1,-1,-1,-1,-1,-1,-1,-1,-1,-1,-1,-1,-1,-1,-1],"loss_changes":[4.227447E4,4.007414E3,1.8212283E4,3.9766797E2,8.843281E2,8.281337E3,5.1579365E3,5.8539185E1,1.2057422E2,2.7000293E2,7.600599E1,2.680169E3,2.2634897E3,1.6779829E3,4.0810293E3,0E0,0E0,4.192383E0,0E0,1.0766699E2,5.8342957E1,6.600811E0,1.4884247E1,5.2468506E2,2.7235518E3,1.6126893E3,8.2570465E2,1.0974219E2,5.309319E2,2.4855093E3,7.747344E2,0E0,0E0,0E0,0E0,0E0,0E0,0E0,0E0,0E0,0E0,0E0,0E0,0E0,0E0,0E0,0E0,0E0,0E0,0E0,0E0,0E0,0E0,0E0,0E0,0E0,0E0],"parents":[2147483647,0,0,1,1,2,2,3,3,4,4,5,5,6,6,7,7,8,8,9,9,10,10,11,11,12,12,13,13,14,14,17,17,19,19,20,20,21,21,22,22,23,23,24,24,25,25,26,26,27,27,28,28,29,29,30,30],"right_children":[2,4,6,8,10,12,14,16,18,20,22,24,26,28,30,-1,-1,32,-1,34,36,38,40,42,44,46,48,50,52,54,56,-1,-1,-1,-1,-1,-1,-1,-1,-1,-1,-1,-1,-1,-1,-1,-1,-1,-1,-1,-1,-1,-1,-1,-1,-1,-1],"split_conditions":[-2.5605538E0,-2.1601436E0,6.2177543E-2,1.1443771E0,-6.842766E-2,-6.8379277E-1,-1.4229927E0,9.4573134E-1,1.5907367E0,-5.311664E-1,-4.8296437E-1,-9.373263E-1,-1.4169085E-2,-6.8128693E-1,9.8308617E-1,-2.3608175E-1,-1.0020479E-1,2.2109754E0,-3.533115E-1,-6.928111E-1,-2.5648937E-2,6.9588387E-1,1.1967478E0,1.2420843E0,-1.1235029E0,-4.6703452E-1,6.3372426E-2,-2.406534E0,-8.99432E-1,-1.5851399E0,1.3601199E0,-3.1126916E-1,-2.6709282E-1,-2.181996E-1,-1.7494541E-1,-1.363953E-1,-3.875108E-2,-1.0000946E-2,2.9484827E-2,-4.23449E-2,-9.099257E-2,-1.7494701E-1,-3.3754295E-1,-1.7890236E-1,-5.297065E-2,-5.553926E-2,5.27277E-3,2.6112791E-2,-2.1495912E-3,-2.9177386E-1,-1.934565E-1,-1.1026839E-1,-1.3731412E-2,1.2441129E-1,2.6906865E-2,6.405108E-2,1.016676E-1],"split_indices":[64,112,58,69,36,81,81,67,84,91,83,83,38,114,81,0,0,65,0,79,83,58,67,76,117,58,108,81,64,114,81,0,0,0,0,0,0,0,0,0,0,0,0,0,0,0,0,0,0,0,0,0,0,0,0,0,0],"split_type":[0,0,0,0,0,0,0,0,0,0,0,0,0,0,0,0,0,0,0,0,0,0,0,0,0,0,0,0,0,0,0,0,0,0,0,0,0,0,0,0,0,0,0,0,0,0,0,0,0,0,0,0,0,0,0,0,0],"sum_hessian":[3.4363176E4,1.2025049E3,3.3160668E4,5.395623E2,6.6294257E2,1.5579935E4,1.7580736E4,5.705692E1,4.8250537E2,5.781554E2,8.478722E1,4.9460327E3,1.0633901E4,4.9337042E2,1.7087365E4,4.9681595E1,7.3753242E0,1.2956163E2,3.5294376E2,4.9592487E2,8.22305E1,2.903431E1,5.5752907E1,2.3985826E2,4.7061743E3,3.2136484E3,7.4202534E3,9.382049E1,3.9954993E2,1.3038884E4,4.0484814E3,9.6054306E1,3.3507317E1,3.2993253E2,1.6599236E2,6.896451E1,1.3265991E1,1.6695646E1,1.2338663E1,1.778651E1,3.7966396E1,1.9741565E2,4.24426E1,3.1978946E2,4.386385E3,1.9922604E3,1.221388E3,3.0429448E3,4.3773086E3,5.5845528E1,3.797496E1,1.8055568E2,2.1899425E2,4.707543E2,1.2568129E4,2.512488E3,1.5359934E3],"tree_param":{"num_deleted":"0","num_feature":"118","num_nodes":"57","size_leaf_vector":"1"}},{"base_weights":[-4.005231E-3,2.2598138E-1,-5.6571493E0,-6.354076E-1,7.9687804E-1,-7.495599E0,-4.2739205E0,-1.5351547E0,-1.6090629E-1,4.763705E-1,1.6303754E0,-5.1268144E0,-7.7443585E0,-4.941951E0,-3.5408025E0,-2.7225099E0,-1.2211885E0,-9.241775E-1,1.808896E-1,-2.0944295E0,5.852915E-1,1.3510289E0,2.3257947E0,-2.2883363E-1,-1.4398901E-1,-8.030817E0,-6.611859E0,-5.153453E0,-3.8787947E0,-3.743764E0,-1.1876962E0,-1.4104669E-1,-2.195265E-2,-6.0201917E-2,-9.299967E-3,2.9308183E-2,-4.898535E-2,1.5023219E-2,-1.728845E-2,-2.5502715E-1,-6.3644476E-2,1.2135917E-1,2.0962646E-2,6.39721E-2,4.7669414E-2,1.0326806E-1,5.4584444E-2,-3.0343696E-1,-3.415683E-1,-2.3217398E-1,-2.9770222E-1,-2.2218117E-1,-1.7139502E-1,-1.6834003E-1,-9.333125E-2,-1.6925095E-1,-1.226557E-1,-8.151142E-2,1.4453692E-2],"categories":[],"categories_nodes":[],"categories_segments":[],"categories_sizes":[],"default_left":[0,0,0,0,0,0,0,0,0,0,0,0,0,0,0,0,0,0,0,0,0,0,0,0,0,0,0,0,0,0,0,0,0,0,0,0,0,0,0,0,0,0,0,0,0,0,0,0,0,0,0,0,0,0,0,0,0,0,0],"id":9,"left_children":[1,3,5,7,9,11,13,15,17,19,21,23,25,27,29,31,33,35,37,39,41,43,45,-1,-1,47,49,51,53,55,57,-1,-1,-1,-1,-1,-1,-1,-1,-1,-1,-1,-1,-1,-1,-1,-1,-1,-1,-1,-1,-1,-1,-1,-1,-1,-1,-1,-1],"loss_changes":[4.4709355E4,1.624958E4,3.4033242E3,5.622646E3,5.308165E3,3.2110156E2,3.675498E2,1.6932383E3,2.2499707E3,4.0196125E3,1.0702549E3,2.4803955E1,1.4444727E2,8.033203E1,1.7304492E2,1.3802036E3,8.015459E2,1.091075E3,6.373536E2,1.3271213E3,2.635541E3,1.489961E2,2.4242383E2,0E0,0E0,2.3798828E1,4.0891113E1,5.0947266E1,1.3216309E1,7.98999E1,3.575652E1,0E0,0E0,0E0,0E0,0E0,0E0,0E0,0E0,0E0,0E0,0E0,0E0,0E0,0E0,0E0,0E0,0E0,0E0,0E0,0E0,0E0,0E0,0E0,0E0,0E0,0E0,0E0,0E0],"parents":[2147483647,0,0,1,1,2,2,3,3,4,4,5,5,6,6,7,7,8,8,9,9,10,10,11,11,12,12,13,13,14,14,15,15,16,16,17,17,18,18,19,19,20,20,21,21,22,22,25,25,26,26,27,27,28,28,29,29,30,30],"right_children":[2,4,6,8,10,12,14,16,18,20,22,24,26,28,30,32,34,36,38,40,42,44,46,-1,-1,48,50,52,54,56,58,-1,-1,-1,-1,-1,-1,-1,-1,-1,-1,-1,-1,-1,-1,-1,-1,-1,-1,-1,-1,-1,-1,-1,-1,-1,-1,-1,-1],"split_conditions":[1.4293166E-1,-1.2961668E-1,-2.2952495E0,-6.435997E-1,8.734512E-1,1.1443771E0,-1.0881361E0,-1.1610978E0,-1.4169085E-2,-1.4229927E0,1.3601199E0,-5.373194E-1,-9.505864E-1,-1.7767802E0,-1.0195072E0,-6.149853E-2,-6.149853E-2,-8.660898E-1,9.996262E-1,-1.3276533E0,-1.5851399E0,-4.873292E-1,-6.149853E-2,-2.2883363E-1,-1.4398901E-1,1.3148879E0,2.7403774E0,-1.3679607E0,-9.0070564E-1,-1.8756593E0,-6.235697E-1,-1.4104669E-1,-2.195265E-2,-6.0201917E-2,-9.299967E-3,2.9308183E-2,-4.898535E-2,1.5023219E-2,-1.728845E-2,-2.5502715E-1,-6.3644476E-2,1.2135917E-1,2.0962646E-2,6.39721E-2,4.7669414E-2,1.0326806E-1,5.4584444E-2,-3.0343696E-1,-3.415683E-1,-2.3217398E-1,-2.9770222E-1,-2.2218117E-1,-1.7139502E-1,-1.6834003E-1,-9.333125E-2,-1.6925095E-1,-1.226557E-1,-8.151142E-2,1.4453692E-2],"split_indices":[74,58,112,81,81,69,83,59,38,81,81,85,109,59,81,74,74,108,70,114,114,99,74,0,0,69,77,81,59,59,59,0,0,0,0,0,0,0,0,0,0,0,0,0,0,0,0,0,0,0,0,0,0,0,0,0,0,0,0],"split_type":[0,0,0,0,0,0,0,0,0,0,0,0,0,0,0,0,0,0,0,0,0,0,0,0,0,0,0,0,0,0,0,0,0,0,0,0,0,0,0,0,0,0,0,0,0,0,0,0,0,0,0,0,0,0,0,0,0,0,0],"sum_hessian":[3.4386438E4,3.3042543E4,1.3438926E3,1.3170345E4,1.98722E4,5.761565E2,7.677361E2,4.547029E3,8.623315E3,1.4353604E4,5.5185947E3,5.5676178E1,5.2048035E2,4.003291E2,3.6740695E2,9.501286E2,3.5969004E3,2.6670989E3,5.956217E3,5.830539E2,1.377055E4,3.9381257E3,1.5804689E3,4.4856293E1,1.0819884E1,4.1325693E2,1.0722342E2,3.3243536E2,6.789374E1,3.3794492E2,2.9462038E1,7.298211E2,2.2030753E2,2.938832E3,6.580683E2,3.5648752E2,2.3106113E3,4.576853E3,1.379364E3,7.148228E1,5.1157162E2,4.6982907E2,1.3300721E4,2.084038E3,1.8540876E3,1.3739777E3,2.0649117E2,7.818374E1,3.3507318E2,3.797496E1,6.924846E1,2.8232318E2,5.0112198E1,6.1192276E1,6.7014637E0,2.406343E2,9.731062E1,1.9623428E1,9.83861E0],"tree_param":{"num_deleted":"0","num_feature":"118","num_nodes":"59","size_leaf_vector":"1"}},{"base_weights":[-8.862935E-3,2.1251716E-1,-5.3926744E0,5.8744085E-1,-7.708745E-1,-7.218859E0,-4.062618E0,3.9760607E-1,1.746088E0,-4.790786E-1,-2.2538128E0,-7.44478E0,-4.393739E0,-4.3414288E0,-2.4432714E0,-2.0296066E0,4.8600537E-1,1.3670346E0,2.3123937E0,-7.058126E-1,1.5856321E-1,-3.7264757E0,-1.4297962E0,-3.2958862E-1,-6.867827E0,-1.5578294E-1,-2.1805795E-1,-4.5458694E0,-3.0535471E0,-2.7978237E0,1.5270345E-1,-1.5277648E-1,-2.5373027E-2,3.777491E-2,7.123144E-3,7.299667E-2,4.9721647E-2,1.0181837E-1,4.764621E-2,-1.6491357E-2,-5.0118178E-2,1.0943607E-2,-4.2896513E-2,-1.6024216E-1,-5.2682307E-2,-7.2989404E-2,-7.848679E-3,-2.9458663E-1,-2.4949855E-1,-1.9585896E-1,-1.5257828E-1,-1.3907667E-1,-6.7073494E-2,-1.4328402E-1,-9.712307E-2,-1.7985396E-2,4.168179E-2],"categories":[],"categories_nodes":[],"categories_segments":[],"categories_sizes":[],"default_left":[0,0,0,0,0,0,0,0,0,0,0,0,0,0,0,0,0,0,0,0,0,0,0,0,0,0,0,0,0,0,0,0,0,0,0,0,0,0,0,0,0,0,0,0,0,0,0,0,0,0,0,0,0,0,0,0,0],"id":10,"left_children":[1,3,5,7,9,11,13,15,17,19,21,23,25,27,29,31,33,35,37,39,41,43,45,-1,47,-1,-1,49,51,53,55,-1,-1,-1,-1,-1,-1,-1,-1,-1,-1,-1,-1,-1,-1,-1,-1,-1,-1,-1,-1,-1,-1,-1,-1,-1,-1],"loss_changes":[4.106908E4,1.2202604E4,3.2915508E3,5.2696953E3,3.9521104E3,3.5011328E2,3.504756E2,4.417774E3,7.2214453E2,1.1038064E3,1.819398E3,1.166875E2,1.432782E1,1.6993945E2,1.0813623E2,1.6804309E3,2.6312603E3,1.3390576E2,2.0489795E2,8.671316E2,2.4746811E2,1.543789E2,3.8432886E2,0E0,2.259375E1,0E0,0E0,7.027051E1,3.525659E1,2.6535828E1,7.392395E0,0E0,0E0,0E0,0E0,0E0,0E0,0E0,0E0,0E0,0E0,0E0,0E0,0E0,0E0,0E0,0E0,0E0,0E0,0E0,0E0,0E0,0E0,0E0,0E0,0E0,0E0],"parents":[2147483647,0,0,1,1,2,2,3,3,4,4,5,5,6,6,7,7,8,8,9,9,10,10,11,11,12,12,13,13,14,14,15,15,16,16,17,17,18,18,19,19,20,20,21,21,22,22,24,24,27,27,28,28,29,29,30,30],"right_children":[2,4,6,8,10,12,14,16,18,20,22,24,26,28,30,32,34,36,38,40,42,44,46,-1,48,-1,-1,50,52,54,56,-1,-1,-1,-1,-1,-1,-1,-1,-1,-1,-1,-1,-1,-1,-1,-1,-1,-1,-1,-1,-1,-1,-1,-1,-1,-1],"split_conditions":[1.4293166E-1,2.2942452E-1,-2.2952495E0,1.074645E0,1.6282439E0,-8.648314E-1,-5.316004E-1,-1.6389906E0,1.3818693E0,3.1721205E-1,-1.4169085E-2,-2.7435367E0,1.6855847E0,-1.2288783E0,-6.4775306E-1,-7.7547103E-1,-3.5911041E-1,-4.013587E-1,1.5843107E0,3.6539173E-1,5.0335014E-1,1.3308209E0,-2.9310565E-2,-3.2958862E-1,-2.1765969E0,-1.5578294E-1,-2.1805795E-1,-1.7767802E0,-4.013587E-1,-9.501635E-1,2.4132946E-1,-1.5277648E-1,-2.5373027E-2,3.777491E-2,7.123144E-3,7.299667E-2,4.9721647E-2,1.0181837E-1,4.764621E-2,-1.6491357E-2,-5.0118178E-2,1.0943607E-2,-4.2896513E-2,-1.6024216E-1,-5.2682307E-2,-7.2989404E-2,-7.848679E-3,-2.9458663E-1,-2.4949855E-1,-1.9585896E-1,-1.5257828E-1,-1.3907667E-1,-6.7073494E-2,-1.4328402E-1,-9.712307E-2,-1.7985396E-2,4.168179E-2],"split_indices":[74,65,112,115,116,116,91,60,23,115,38,115,65,56,115,56,108,109,108,64,106,108,43,0,115,0,0,59,109,83,71,0,0,0,0,0,0,0,0,0,0,0,0,0,0,0,0,0,0,0,0,0,0,0,0,0,0],"split_type":[0,0,0,0,0,0,0,0,0,0,0,0,0,0,0,0,0,0,0,0,0,0,0,0,0,0,0,0,0,0,0,0,0,0,0,0,0,0,0,0,0,0,0,0,0,0,0,0,0,0,0,0,0,0,0,0,0],"sum_hessian":[3.4456227E4,3.309572E4,1.3605076E3,2.396084E4,9.134882E3,5.724931E2,7.880145E2,2.058831E4,3.3725286E3,7.6335054E3,1.5013762E3,5.294156E2,4.3077465E1,6.715839E2,1.16430565E2,7.230938E2,1.9865217E4,2.0212926E3,1.351236E3,5.631309E3,2.0021964E3,5.380753E2,9.633009E2,2.9039676E2,2.3901886E2,2.556352E1,1.7513947E1,5.785607E2,9.302317E1,1.02463E2,1.3967572E1,3.3570065E2,3.8739316E2,8.509683E3,1.1355533E4,6.2812506E2,1.3931675E3,1.2147858E3,1.364502E2,3.4677417E3,2.1635674E3,1.8413894E3,1.6080704E2,5.130734E2,2.5001902E1,7.648691E2,1.9843182E2,1.9210861E2,4.6910244E1,4.9119156E2,8.736922E1,7.720381E1,1.5819363E1,4.1966988E1,6.049601E1,8.282147E0,5.685425E0],"tree_param":{"num_deleted":"0","num_feature":"118","num_nodes":"57","size_leaf_vector":"1"}},{"base_weights":[3.0582384E-3,2.1154772E-1,-5.1760635E0,-3.8353813E-1,8.9572185E-1,-6.8434114E0,-3.8054428E0,-1.2601128E0,3.0260114E-2,6.293849E-1,1.7103976E0,-7.08149E0,-4.398897E0,-4.049847E0,-2.010021E0,-3.8529463E0,-1.1018829E0,4.3256828E-1,-2.9277351E-1,3.2152417E0,5.4935324E-1,2.3191624E0,1.4595617E0,-7.4954486E0,-6.3501453E0,-3.3787408E0,-2.0454513E-1,-1.942193E0,-4.170946E0,3.01573E-1,-2.4073713E0,-1.620485E-1,-1.0526377E-1,-1.6923541E-1,-4.1645322E-2,3.636703E-2,-6.341326E-3,8.4341713E-4,-4.6771534E-2,6.452916E-2,1.8476842E-1,-6.9100335E-2,2.656633E-2,1.0244142E-1,3.504214E-2,5.8053706E-2,1.0599363E-1,-2.834326E-1,-3.1676546E-1,-2.1413335E-1,-2.704769E-1,-1.0608303E-1,-1.584303E-1,-3.8630355E-2,-8.975815E-2,-1.791195E-1,-1.08516075E-1,-9.496351E-3,4.006414E-2,-1.1228979E-1,-6.774175E-2],"categories":[],"categories_nodes":[],"categories_segments":[],"categories_sizes":[],"default_left":[0,0,0,0,0,0,0,0,0,0,0,0,0,0,0,0,0,0,0,0,0,0,0,0,0,0,0,0,0,0,0,0,0,0,0,0,0,0,0,0,0,0,0,0,0,0,0,0,0,0,0,0,0,0,0,0,0,0,0,0,0],"id":11,"left_children":[1,3,5,7,9,11,13,15,17,19,21,23,25,27,29,31,33,35,37,39,41,43,45,47,49,51,-1,53,55,57,59,-1,-1,-1,-1,-1,-1,-1,-1,-1,-1,-1,-1,-1,-1,-1,-1,-1,-1,-1,-1,-1,-1,-1,-1,-1,-1,-1,-1,-1,-1],"loss_changes":[3.695611E4,1.3395799E4,3.0141875E3,6.38291E3,3.3201152E3,3.3258398E2,3.150586E2,2.3125752E3,1.5535992E3,2.3859048E3,5.737529E2,1.4235352E2,1.9890747E1,1.5906152E2,8.157065E1,1.014209E1,1.6122842E3,1.3701599E3,1.7217122E3,6.9914087E2,2.1766055E3,2.2442334E2,1.9060693E2,1.2929688E0,1.8014648E1,1.8233185E0,0E0,6.343384E0,1.1469336E2,4.8303876E0,1.4397247E1,0E0,0E0,0E0,0E0,0E0,0E0,0E0,0E0,0E0,0E0,0E0,0E0,0E0,0E0,0E0,0E0,0E0,0E0,0E0,0E0,0E0,0E0,0E0,0E0,0E0,0E0,0E0,0E0,0E0,0E0],"parents":[2147483647,0,0,1,1,2,2,3,3,4,4,5,5,6,6,7,7,8,8,9,9,10,10,11,11,12,12,13,13,14,14,15,15,16,16,17,17,18,18,19,19,20,20,21,21,22,22,23,23,24,24,25,25,27,27,28,28,29,29,30,30],"right_children":[2,4,6,8,10,12,14,16,18,20,22,24,26,28,30,32,34,36,38,40,42,44,46,48,50,52,-1,54,56,58,60,-1,-1,-1,-1,-1,-1,-1,-1,-1,-1,-1,-1,-1,-1,-1,-1,-1,-1,-1,-1,-1,-1,-1,-1,-1,-1,-1,-1,-1,-1],"split_conditions":[1.4293166E-1,2.3143749E-1,-2.1601436E0,-6.105664E-1,9.8980016E-1,-8.648314E-1,-5.305291E-1,-1.1235029E0,1.0562071E-1,-1.7131401E0,-1.0380757E0,-2.6247382E0,3.0892308E0,-2.731936E-1,-1.1626965E0,3.4532017E-1,-9.626249E-1,8.9628436E-2,3.302069E-1,9.17872E-1,-1.5375563E0,1.6265589E0,1.909729E0,2.0832248E0,2.5075538E0,1.3308176E0,-2.0454513E-1,-6.075235E-1,-3.3974868E-1,2.408743E-1,3.893107E-1,-1.620485E-1,-1.0526377E-1,-1.6923541E-1,-4.1645322E-2,3.636703E-2,-6.341326E-3,8.4341713E-4,-4.6771534E-2,6.452916E-2,1.8476842E-1,-6.9100335E-2,2.656633E-2,1.0244142E-1,3.504214E-2,5.8053706E-2,1.0599363E-1,-2.834326E-1,-3.1676546E-1,-2.1413335E-1,-2.704769E-1,-1.0608303E-1,-1.584303E-1,-3.8630355E-2,-8.975815E-2,-1.791195E-1,-1.08516075E-1,-9.496351E-3,4.006414E-2,-1.1228979E-1,-6.774175E-2],"split_indices":[74,58,112,81,81,116,91,117,108,114,65,115,57,70,66,114,83,66,67,69,115,108,115,117,57,70,0,116,73,58,86,0,0,0,0,0,0,0,0,0,0,0,0,0,0,0,0,0,0,0,0,0,0,0,0,0,0,0,0,0,0],"split_type":[0,0,0,0,0,0,0,0,0,0,0,0,0,0,0,0,0,0,0,0,0,0,0,0,0,0,0,0,0,0,0,0,0,0,0,0,0,0,0,0,0,0,0,0,0,0,0,0,0,0,0,0,0,0,0,0,0,0,0,0,0],"sum_hessian":[3.4225062E4,3.290104E4,1.3240239E3,1.759612E4,1.5304918E4,5.9654443E2,7.2747943E2,5.6425874E3,1.1953532E4,1.1534836E4,3.7700815E3,5.4281854E2,5.372592E1,6.3977625E2,8.770319E1,3.239186E2,5.318669E3,5.323698E3,6.6298345E3,3.4573163E2,1.11891045E4,1.0989402E3,2.671141E3,3.4400845E2,1.9881009E2,1.9055689E1,3.4670235E1,3.5219807E1,6.0455646E2,1.2822457E1,7.488074E1,3.145935E2,9.3251E0,1.7764407E2,5.141025E3,3.0376418E3,2.2860562E3,4.8136616E3,1.8161727E3,1.4644652E2,1.992851E2,4.2911893E2,1.0759985E4,1.00418317E3,9.475708E1,2.5176348E3,1.5350647E2,4.9144066E1,2.9486438E2,2.2338211E1,1.7647188E2,7.5289216E0,1.1526767E1,6.5886436E0,2.863116E1,5.584498E2,4.610663E1,7.1370325E0,5.685425E0,5.3878258E1,2.1002474E1],"tree_param":{"num_deleted":"0","num_feature":"118","num_nodes":"61","size_leaf_vector":"1"}},{"base_weights":[-3.9530452E-3,2.007067E-1,-4.975303E0,-7.919855E-1,5.909165E-1,-6.611099E0,-3.7066746E0,-3.0348873E-1,-1.5286571E0,4.2057604E-1,1.6053836E0,-4.4997735E0,-6.8399944E0,-4.220097E0,-2.936164E0,-1.0873535E0,1.3334054E-1,-1.1038411E0,-3.2442672E0,-2.0375051E0,4.869272E-1,2.2621126E0,1.3578577E0,-3.7131271E0,-2.1024577E-1,-7.1952667E0,-6.1178246E0,-4.4082084E0,-2.7806408E0,-3.0983768E0,-4.3063997E-3,-6.2255375E-3,-6.250964E-2,2.3006983E-2,-5.535057E-3,-1.8201329E-2,-7.092141E-2,-1.5009865E-1,-1.04424484E-1,-2.4887078E-1,-5.1677745E-2,5.0716046E-2,1.3114184E-2,1.01001196E-1,2.3860257E-2,5.3668723E-2,9.988458E-2,-1.3262932E-1,-1.82208E-1,-3.018176E-1,-2.419143E-1,-2.3278537E-1,-2.7027553E-1,-1.8984516E-1,-1.5198527E-1,-6.2206842E-2,-1.331207E-1,-1.11209504E-1,-1.60245E-1,-2.2357734E-2,3.850927E-2],"categories":[],"categories_nodes":[],"categories_segments":[],"categories_sizes":[],"default_left":[0,0,0,0,0,0,0,0,0,0,0,0,0,0,0,0,0,0,0,0,0,0,0,0,0,0,0,0,0,0,0,0,0,0,0,0,0,0,0,0,0,0,0,0,0,0,0,0,0,0,0,0,0,0,0,0,0,0,0,0,0],"id":12,"left_children":[1,3,5,7,9,11,13,15,17,19,21,23,25,27,29,31,33,35,37,39,41,43,45,47,-1,49,51,53,55,57,59,-1,-1,-1,-1,-1,-1,-1,-1,-1,-1,-1,-1,-1,-1,-1,-1,-1,-1,-1,-1,-1,-1,-1,-1,-1,-1,-1,-1,-1,-1],"loss_changes":[3.4980312E4,1.279102E4,2.8092227E3,3.3525142E3,4.0955195E3,2.7201172E2,2.9698145E2,1.9187793E3,2.705245E3,3.3104705E3,5.520879E2,1.6223267E1,1.1656055E2,1.1803516E2,1.4603003E2,7.7564746E2,4.0109406E2,1.1873037E3,1.8980322E2,1.6695798E3,2.4847563E3,2.5314893E2,1.7837793E2,2.0836487E0,0E0,3.53125E0,1.7962402E1,3.715088E1,2.6194672E1,8.838306E1,8.359982E0,0E0,0E0,0E0,0E0,0E0,0E0,0E0,0E0,0E0,0E0,0E0,0E0,0E0,0E0,0E0,0E0,0E0,0E0,0E0,0E0,0E0,0E0,0E0,0E0,0E0,0E0,0E0,0E0,0E0,0E0],"parents":[2147483647,0,0,1,1,2,2,3,3,4,4,5,5,6,6,7,7,8,8,9,9,10,10,11,11,12,12,13,13,14,14,15,15,16,16,17,17,18,18,19,19,20,20,21,21,22,22,23,23,25,25,26,26,27,27,28,28,29,29,30,30],"right_children":[2,4,6,8,10,12,14,16,18,20,22,24,26,28,30,32,34,36,38,40,42,44,46,48,-1,50,52,54,56,58,60,-1,-1,-1,-1,-1,-1,-1,-1,-1,-1,-1,-1,-1,-1,-1,-1,-1,-1,-1,-1,-1,-1,-1,-1,-1,-1,-1,-1,-1,-1],"split_conditions":[1.4293166E-1,-4.9309343E-1,-2.2952495E0,-6.4476416E-2,1.074645E0,1.1443771E0,-6.928111E-1,-4.7452623E-1,1.3346964E0,-1.6984227E0,-9.9076605E-1,1.6855847E0,-2.6247382E0,-1.1001346E0,-6.4775306E-1,-1.9014859E-1,6.336537E-2,2.7398413E-1,-4.01113E-1,-7.3536867E-1,-1.0773312E0,1.6265589E0,1.909729E0,5.071917E-1,-2.1024577E-1,-2.1887734E0,-7.186076E-1,-1.7767802E0,-2.731936E-1,4.3007293E0,2.408743E-1,-6.2255375E-3,-6.250964E-2,2.3006983E-2,-5.535057E-3,-1.8201329E-2,-7.092141E-2,-1.5009865E-1,-1.04424484E-1,-2.4887078E-1,-5.1677745E-2,5.0716046E-2,1.3114184E-2,1.01001196E-1,2.3860257E-2,5.3668723E-2,9.988458E-2,-1.3262932E-1,-1.82208E-1,-3.018176E-1,-2.419143E-1,-2.3278537E-1,-2.7027553E-1,-1.8984516E-1,-1.5198527E-1,-6.2206842E-2,-1.331207E-1,-1.11209504E-1,-1.60245E-1,-2.2357734E-2,3.850927E-2],"split_indices":[74,58,112,30,115,69,79,115,116,115,65,65,115,115,115,70,69,64,117,114,108,108,115,76,0,59,67,59,70,57,58,0,0,0,0,0,0,0,0,0,0,0,0,0,0,0,0,0,0,0,0,0,0,0,0,0,0,0,0,0,0],"split_type":[0,0,0,0,0,0,0,0,0,0,0,0,0,0,0,0,0,0,0,0,0,0,0,0,0,0,0,0,0,0,0,0,0,0,0,0,0,0,0,0,0,0,0,0,0,0,0,0,0,0,0,0,0,0,0,0,0,0,0,0,0],"sum_hessian":[3.4379316E4,3.3020312E4,1.359003E3,9.317021E3,2.3703293E4,5.927763E2,7.662268E2,5.602638E3,3.7143833E3,2.0296094E4,3.407198E3,5.8893044E1,5.3388324E2,4.585784E2,3.0764838E2,2.0048243E3,3.597814E3,2.9778044E3,7.365787E2,5.330658E2,1.976303E4,9.31563E2,2.475635E3,2.556352E1,3.3329525E1,3.5517755E2,1.7870569E2,4.047166E2,5.386179E1,2.91447E2,1.6201393E1,6.127373E2,1.392087E3,1.3982354E3,2.1995786E3,1.4079579E3,1.5698467E3,4.9515656E2,2.4142213E2,8.9352844E1,4.4371298E2,3.772292E3,1.5990736E4,8.500719E2,8.149109E1,2.3202334E3,1.5540161E2,1.5645187E1,9.918332E0,3.4177463E2,1.3402927E1,7.594992E1,1.02755775E2,3.3723645E2,6.748017E1,1.3653008E1,4.0208782E1,1.8631299E2,1.0513399E2,1.0515969E1,5.685425E0],"tree_param":{"num_deleted":"0","num_feature":"118","num_nodes":"61","size_leaf_vector":"1"}},{"base_weights":[9.995502E-4,1.9095716E-1,-4.764659E0,-6.6052747E-1,6.1534804E-1,-6.356397E0,-3.6105208E0,-1.286231E0,-1.5296158E-1,-1.8858663E0,6.978879E-1,-6.5530453E0,-4.020637E0,-4.212747E0,-2.9631732E0,-3.384399E0,-1.1106461E0,1.6960116E-1,-8.711451E-1,-1.4472598E0,-5.7379446E0,4.6697703E-1,1.4357175E0,-6.8308034E0,-5.678714E0,-1.9104023E-1,-1.3886438E-1,-4.367792E0,-3.1973093E0,-3.114134E0,-2.815274E-1,7.950088E-3,-1.4676344E-1,-5.6116093E-2,-7.7786064E-3,1.4928856E-2,-1.5290159E-2,-4.9249645E-2,5.437329E-3,-8.330628E-2,1.0561941E-2,-2.826245E-1,-1.9268088E-1,1.587495E-1,1.7931756E-2,5.0317205E-2,8.412767E-2,-2.743652E-1,-3.0036205E-1,-1.7557083E-1,-2.4192749E-1,-1.4823772E-1,-1.8848497E-1,-1.4060643E-1,-7.871682E-2,-1.4719129E-1,-1.0936403E-1,-5.4258555E-2,1.585134E-2],"categories":[],"categories_nodes":[],"categories_segments":[],"categories_sizes":[],"default_left":[0,0,0,0,0,0,0,0,0,0,0,0,0,0,0,0,0,0,0,0,0,0,0,0,0,0,0,0,0,0,0,0,0,0,0,0,0,0,0,0,0,0,0,0,0,0,0,0,0,0,0,0,0,0,0,0,0,0,0],"id":13,"left_children":[1,3,5,7,9,11,13,15,17,19,21,23,25,27,29,31,33,35,37,39,41,43,45,47,49,-1,-1,51,53,55,57,-1,-1,-1,-1,-1,-1,-1,-1,-1,-1,-1,-1,-1,-1,-1,-1,-1,-1,-1,-1,-1,-1,-1,-1,-1,-1,-1,-1],"loss_changes":[3.1130545E4,1.1950645E4,2.4103906E3,3.4932266E3,4.556879E3,2.4151953E2,2.919453E2,1.8127178E3,1.4072941E3,1.1867432E3,3.639627E3,1.0558203E2,9.487549E0,5.5203613E1,1.4901343E2,1.8728906E2,9.9060205E2,4.2422595E2,5.859795E2,5.949929E2,6.8721436E1,1.9949319E3,6.763594E2,1.3775391E1,1.1443848E1,0E0,0E0,3.491992E1,9.004089E0,6.688965E1,1.4026482E1,0E0,0E0,0E0,0E0,0E0,0E0,0E0,0E0,0E0,0E0,0E0,0E0,0E0,0E0,0E0,0E0,0E0,0E0,0E0,0E0,0E0,0E0,0E0,0E0,0E0,0E0,0E0,0E0],"parents":[2147483647,0,0,1,1,2,2,3,3,4,4,5,5,6,6,7,7,8,8,9,9,10,10,11,11,12,12,13,13,14,14,15,15,16,16,17,17,18,18,19,19,20,20,21,21,22,22,23,23,24,24,27,27,28,28,29,29,30,30],"right_children":[2,4,6,8,10,12,14,16,18,20,22,24,26,28,30,32,34,36,38,40,42,44,46,48,50,-1,-1,52,54,56,58,-1,-1,-1,-1,-1,-1,-1,-1,-1,-1,-1,-1,-1,-1,-1,-1,-1,-1,-1,-1,-1,-1,-1,-1,-1,-1,-1,-1],"split_conditions":[1.4293166E-1,-3.2537845E-1,-2.2952495E0,-4.0676394E-1,-1.4229927E0,-5.786492E-1,-1.1166687E0,-1.0100849E0,-6.5128796E-2,1.069466E0,9.1710067E-1,-2.483823E0,-1.303155E0,-1.315779E0,-7.0642745E-1,4.5412502E-1,-6.149853E-2,9.5774883E-1,4.871616E-1,-1.4271191E-1,-2.6247382E0,-2.012573E0,1.402956E0,1.4250513E0,4.9381283E-1,-1.9104023E-1,-1.3886438E-1,8.0153596E-1,-9.176438E-1,-5.307096E-1,-5.2467686E-1,7.950088E-3,-1.4676344E-1,-5.6116093E-2,-7.7786064E-3,1.4928856E-2,-1.5290159E-2,-4.9249645E-2,5.437329E-3,-8.330628E-2,1.0561941E-2,-2.826245E-1,-1.9268088E-1,1.587495E-1,1.7931756E-2,5.0317205E-2,8.412767E-2,-2.743652E-1,-3.0036205E-1,-1.7557083E-1,-2.4192749E-1,-1.4823772E-1,-1.8848497E-1,-1.4060643E-1,-7.871682E-2,-1.4719129E-1,-1.0936403E-1,-5.4258555E-2,1.585134E-2],"split_indices":[74,58,112,81,81,85,83,117,94,76,81,115,56,115,115,67,74,70,115,74,115,114,81,76,87,0,0,76,115,85,115,0,0,0,0,0,0,0,0,0,0,0,0,0,0,0,0,0,0,0,0,0,0,0,0,0,0,0,0],"split_type":[0,0,0,0,0,0,0,0,0,0,0,0,0,0,0,0,0,0,0,0,0,0,0,0,0,0,0,0,0,0,0,0,0,0,0,0,0,0,0,0,0,0,0,0,0,0,0,0,0,0,0,0,0,0,0,0,0,0,0],"sum_hessian":[3.438795E4,3.307022E4,1.3177329E3,1.0999855E4,2.2070363E4,5.530141E2,7.647189E2,4.9261636E3,6.0736914E3,7.047008E2,2.1365662E4,5.0931122E2,4.3702854E1,3.9484543E2,3.6987347E2,3.7975073E2,4.5464126E3,4.1913213E3,1.8823705E3,6.332185E2,7.148228E1,1.6273582E4,5.09208E3,3.8421722E2,1.2509399E2,2.2606976E1,2.1095877E1,3.412095E2,5.363593E1,3.5004306E2,1.9830412E1,1.3988397E1,3.6576233E2,3.6215774E3,9.248355E2,3.10137E3,1.089951E3,1.4368665E3,4.4550403E2,4.7813388E2,1.5508463E2,3.574114E1,3.574114E1,1.7624817E2,1.6097334E4,3.6599565E3,1.4321235E3,2.3678505E2,1.4743219E2,1.1169106E1,1.1392488E2,5.651281E1,2.846967E2,4.6571564E1,7.0643654E0,1.8736418E2,1.6267886E2,7.733759E0,1.2096653E1],"tree_param":{"num_deleted":"0","num_feature":"118","num_nodes":"59","size_leaf_vector":"1"}},{"base_weights":[3.238099E-3,1.8561864E-1,-4.568665E0,-7.003213E-1,5.591997E-1,-6.010278E0,-3.3508253E0,-1.1930968E0,-1.036191E-1,-1.6775358E0,6.293996E-1,-6.325431E0,-4.626864E0,-3.822607E0,-2.7259295E0,-3.293627E0,-1.0500026E0,-7.5682676E-1,1.8523149E-1,-3.25375E0,-5.323372E-1,3.111014E-1,1.0417548E0,-6.548049E0,-5.3881273E0,-4.9977293E0,-3.386543E0,-2.0304768E0,-3.9383955E0,-2.9582064E0,-1.1778795E0,1.5642083E-3,-1.4205046E-1,-5.2679077E-2,-8.267824E-3,2.918618E-2,-4.0742926E-2,1.5811585E-2,-1.5971113E-2,-2.3639661E-1,-1.09506994E-1,1.02211095E-1,-2.9719954E-2,-4.4306748E-2,1.5201074E-2,7.3294625E-2,2.8780242E-2,-2.784352E-1,-2.4424598E-1,-1.6395798E-1,-2.2987604E-1,-2.1968603E-1,-1.8418966E-1,-1.5071355E-1,-1.0406638E-1,-9.783695E-2,-4.794331E-2,-1.24921635E-1,-1.6806506E-1,-1.2869501E-1,-6.2186528E-2,-6.8621404E-2,1.1862378E-2],"categories":[],"categories_nodes":[],"categories_segments":[],"categories_sizes":[],"default_left":[0,0,0,0,0,0,0,0,0,0,0,0,0,0,0,0,0,0,0,0,0,0,0,0,0,0,0,0,0,0,0,0,0,0,0,0,0,0,0,0,0,0,0,0,0,0,0,0,0,0,0,0,0,0,0,0,0,0,0,0,0,0,0],"id":14,"left_children":[1,3,5,7,9,11,13,15,17,19,21,23,25,27,29,31,33,35,37,39,41,43,45,47,49,51,53,55,57,59,61,-1,-1,-1,-1,-1,-1,-1,-1,-1,-1,-1,-1,-1,-1,-1,-1,-1,-1,-1,-1,-1,-1,-1,-1,-1,-1,-1,-1,-1,-1,-1,-1],"loss_changes":[2.8634922E4,1.0930442E4,2.3029805E3,2.8800103E3,3.6478188E3,2.4879297E2,2.0544775E2,1.6103857E3,8.362103E2,1.2747621E3,2.9559014E3,8.551758E1,4.380371E1,8.0035645E1,1.0909766E2,1.314248E2,9.153115E2,4.3755505E2,3.3921313E2,4.4274805E2,2.2173303E2,9.373209E2,2.4694219E3,1.7625E1,7.361084E0,2.3947754E0,8.947449E-1,5.4746933E0,2.7677246E1,4.848047E1,2.8600544E1,0E0,0E0,0E0,0E0,0E0,0E0,0E0,0E0,0E0,0E0,0E0,0E0,0E0,0E0,0E0,0E0,0E0,0E0,0E0,0E0,0E0,0E0,0E0,0E0,0E0,0E0,0E0,0E0,0E0,0E0,0E0,0E0],"parents":[2147483647,0,0,1,1,2,2,3,3,4,4,5,5,6,6,7,7,8,8,9,9,10,10,11,11,12,12,13,13,14,14,15,15,16,16,17,17,18,18,19,19,20,20,21,21,22,22,23,23,24,24,25,25,26,26,27,27,28,28,29,29,30,30],"right_children":[2,4,6,8,10,12,14,16,18,20,22,24,26,28,30,32,34,36,38,40,42,44,46,48,50,52,54,56,58,60,62,-1,-1,-1,-1,-1,-1,-1,-1,-1,-1,-1,-1,-1,-1,-1,-1,-1,-1,-1,-1,-1,-1,-1,-1,-1,-1,-1,-1,-1,-1,-1,-1],"split_conditions":[1.4293166E-1,-4.380902E-1,-2.1601436E0,-1.082928E-1,-1.6389906E0,-1.6968943E0,-6.928111E-1,-1.0668631E0,-5.012119E-2,-7.7547103E-1,6.427914E-1,-2.483823E0,-1.3757055E0,-2.2278008E-1,1.1354432E0,1.8536867E0,-6.149853E-2,-9.0833807E-1,1.1618212E0,-1.6968943E0,-1.4188308E-1,-1.5375563E0,-5.012119E-2,-1.0350829E0,6.765246E-1,-2.8428757E-1,7.816687E-1,-5.131136E-1,-3.333523E0,2.7136056E-2,4.6537966E-2,1.5642083E-3,-1.4205046E-1,-5.2679077E-2,-8.267824E-3,2.918618E-2,-4.0742926E-2,1.5811585E-2,-1.5971113E-2,-2.3639661E-1,-1.09506994E-1,1.02211095E-1,-2.9719954E-2,-4.4306748E-2,1.5201074E-2,7.3294625E-2,2.8780242E-2,-2.784352E-1,-2.4424598E-1,-1.6395798E-1,-2.2987604E-1,-2.1968603E-1,-1.8418966E-1,-1.5071355E-1,-1.0406638E-1,-9.783695E-2,-4.794331E-2,-1.24921635E-1,-1.6806506E-1,-1.2869501E-1,-6.2186528E-2,-6.8621404E-2,1.1862378E-2],"split_indices":[74,58,112,115,60,114,79,117,44,56,58,115,56,70,67,80,74,108,69,114,40,115,44,109,95,67,67,99,105,62,60,0,0,0,0,0,0,0,0,0,0,0,0,0,0,0,0,0,0,0,0,0,0,0,0,0,0,0,0,0,0,0,0],"split_type":[0,0,0,0,0,0,0,0,0,0,0,0,0,0,0,0,0,0,0,0,0,0,0,0,0,0,0,0,0,0,0,0,0,0,0,0,0,0,0,0,0,0,0,0,0,0,0,0,0,0,0,0,0,0,0,0,0,0,0,0,0,0,0],"sum_hessian":[3.4341555E4,3.3024586E4,1.3169673E3,9.795048E3,2.322954E4,6.022629E2,7.1470435E2,5.3643345E3,4.430714E3,7.0651447E2,2.2523023E4,4.8920682E2,1.13056046E2,4.058801E2,3.0882425E2,3.4146945E2,5.022865E3,1.3584846E3,3.072229E3,2.9692685E2,4.0958765E2,1.2711833E4,9.811191E3,3.9315253E2,9.6054306E1,8.595818E1,2.709786E1,2.5185017E1,3.806951E2,2.681135E2,4.0710773E1,1.1349744E1,3.301197E2,4.0137014E3,1.00916364E3,1.7855405E2,1.1799305E3,2.2903286E3,7.819004E2,6.031317E1,2.3661366E2,2.3042257E1,3.8654538E2,4.772189E2,1.2234614E4,3.2249258E3,6.5862656E3,3.2613788E2,6.701463E1,8.935285E0,8.7119026E1,5.5845528E1,3.0112658E1,2.0373156E1,6.7247047E0,1.787057E1,7.3144474E0,3.60988E1,3.4459628E2,2.4577528E2,2.2338211E1,3.0870005E1,9.84077E0],"tree_param":{"num_deleted":"0","num_feature":"118","num_nodes":"63","size_leaf_vector":"1"}},{"base_weights":[2.7999792E-3,1.786264E-1,-4.372756E0,-3.308161E-1,7.823256E-1,-5.8539257E0,-3.2863405E0,-8.985114E-1,1.1391463E-1,1.3829149E0,4.668874E-1,-6.0467095E0,-3.715831E0,-3.6307821E0,-2.391486E0,-1.9975505E0,-6.091989E-1,4.6260086E-1,-1.5023226E-1,2.5540721E0,1.1385064E0,-1.0082964E0,6.26717E-1,-6.338044E0,-5.4005537E0,-1.1920857E-1,-1.708845E-1,-3.0827246E0,-4.041165E0,-2.944734E0,-1.5729828E0,-9.869907E-2,-2.2330403E-2,-3.6710063E-3,-3.927202E-2,3.5209324E-2,-4.4073164E-3,-2.9831162E-2,2.354409E-3,6.297305E-2,1.6257237E-1,3.140791E-2,7.440597E-2,-2.0436649E-1,-3.0280748E-2,3.552195E-2,7.762252E-3,-2.5552875E-1,-2.7627757E-1,-2.2935972E-1,-1.7117661E-1,-5.6517538E-2,-1.3488397E-1,-1.6112764E-1,-1.9953524E-1,-1.314815E-1,-9.6868984E-2,-7.3891096E-2,1.670158E-2],"categories":[],"categories_nodes":[],"categories_segments":[],"categories_sizes":[],"default_left":[0,0,0,0,0,0,0,0,0,0,0,0,0,0,0,0,0,0,0,0,0,0,0,0,0,0,0,0,0,0,0,0,0,0,0,0,0,0,0,0,0,0,0,0,0,0,0,0,0,0,0,0,0,0,0,0,0,0,0],"id":15,"left_children":[1,3,5,7,9,11,13,15,17,19,21,23,25,27,29,31,33,35,37,39,41,43,45,47,49,-1,-1,51,53,55,57,-1,-1,-1,-1,-1,-1,-1,-1,-1,-1,-1,-1,-1,-1,-1,-1,-1,-1,-1,-1,-1,-1,-1,-1,-1,-1,-1,-1],"loss_changes":[2.6563775E4,1.0209315E4,2.1369336E3,4.5454326E3,2.877621E3,2.2145703E2,2.3291211E2,2.513709E3,9.29876E2,1.4955889E3,2.3489346E3,8.104297E1,9.725647E0,1.1859424E2,9.4946045E1,8.9197314E2,1.0867637E3,9.455541E2,6.7168616E2,1.2649097E3,1.0767632E3,1.0663348E3,8.9305835E2,2.2382812E0,1.080127E1,0E0,0E0,6.1129883E1,3.2174805E1,1.2767456E1,3.522618E1,0E0,0E0,0E0,0E0,0E0,0E0,0E0,0E0,0E0,0E0,0E0,0E0,0E0,0E0,0E0,0E0,0E0,0E0,0E0,0E0,0E0,0E0,0E0,0E0,0E0,0E0,0E0,0E0],"parents":[2147483647,0,0,1,1,2,2,3,3,4,4,5,5,6,6,7,7,8,8,9,9,10,10,11,11,12,12,13,13,14,14,15,15,16,16,17,17,18,18,19,19,20,20,21,21,22,22,23,23,24,24,27,27,28,28,29,29,30,30],"right_children":[2,4,6,8,10,12,14,16,18,20,22,24,26,28,30,32,34,36,38,40,42,44,46,48,50,-1,-1,52,54,56,58,-1,-1,-1,-1,-1,-1,-1,-1,-1,-1,-1,-1,-1,-1,-1,-1,-1,-1,-1,-1,-1,-1,-1,-1,-1,-1,-1,-1],"split_conditions":[1.4293166E-1,2.5346532E-1,-2.2952495E0,-2.0171587E-1,-1.4169085E-2,-8.648314E-1,-1.8756593E0,-1.0529797E0,6.3372426E-2,-1.2463243E0,-7.239393E-1,-2.6247382E0,2.8108463E0,1.0335958E0,-8.745045E-1,-6.149853E-2,-1.9011727E-1,8.9628436E-2,-1.4169085E-2,7.11285E-1,7.7073854E-1,-1.3276533E0,1.9012378E-1,1.4250513E0,-2.1887734E0,-1.1920857E-1,-1.708845E-1,-2.731936E-1,1.496383E0,-6.075235E-1,-5.566388E-1,-9.869907E-2,-2.2330403E-2,-3.6710063E-3,-3.927202E-2,3.5209324E-2,-4.4073164E-3,-2.9831162E-2,2.354409E-3,6.297305E-2,1.6257237E-1,3.140791E-2,7.440597E-2,-2.0436649E-1,-3.0280748E-2,3.552195E-2,7.762252E-3,-2.5552875E-1,-2.7627757E-1,-2.2935972E-1,-1.7117661E-1,-5.6517538E-2,-1.3488397E-1,-1.6112764E-1,-1.9953524E-1,-1.314815E-1,-9.6868984E-2,-7.3891096E-2,1.670158E-2],"split_indices":[74,58,112,115,38,116,59,59,108,108,115,115,57,77,83,74,108,66,38,83,63,114,69,76,59,0,0,70,111,116,115,0,0,0,0,0,0,0,0,0,0,0,0,0,0,0,0,0,0,0,0,0,0,0,0,0,0,0,0],"split_type":[0,0,0,0,0,0,0,0,0,0,0,0,0,0,0,0,0,0,0,0,0,0,0,0,0,0,0,0,0,0,0,0,0,0,0,0,0,0,0,0,0,0,0,0,0,0,0,0,0,0,0,0,0,0,0,0,0,0,0],"sum_hessian":[3.452807E4,3.319462E4,1.333448E3,1.8002676E4,1.5191947E4,5.6337897E2,7.70069E2,7.9080405E3,1.0094635E4,5.2307593E3,9.961188E3,5.160127E2,4.736628E1,5.5499023E2,2.1507875E2,1.6472947E3,6.2607456E3,4.351163E3,5.7434717E3,9.0233795E2,4.328421E3,9.7343713E2,8.987751E3,3.5294376E2,1.6306894E2,1.5912913E1,3.1453365E1,2.3932469E2,3.1566553E2,1.2757144E2,8.750731E1,1.3137208E3,3.335738E2,2.4419382E3,3.8188074E3,2.6015405E3,1.7496224E3,1.5373203E3,4.2061514E3,5.09097E2,3.93241E2,2.7145217E3,1.6138994E3,6.5145874E1,9.0829126E2,5.942703E3,3.0450479E3,2.1221301E2,1.4073073E2,1.4966602E2,1.3402927E1,1.9998049E1,2.1932664E2,2.5803275E2,5.7632793E1,9.382049E1,3.3750957E1,7.956384E1,7.943468E0],"tree_param":{"num_deleted":"0","num_feature":"118","num_nodes":"59","size_leaf_vector":"1"}},{"base_weights":[2.0484412E-3,-3.0208871E0,2.4186707E-1,-5.338328E0,-2.0048132E0,-3.1391883E-1,7.0108825E-1,-5.713074E0,-3.4551103E0,-2.7188985E0,-4.1622263E-1,-1.0251642E0,-1.3757004E-2,4.702433E-1,1.3540704E0,-6.137527E0,-5.016311E0,-3.5926266E0,-5.9821047E-2,-1.1066992E0,-2.9983215E0,-9.900601E-1,5.3083974E-1,-3.1476188E0,-9.2926234E-1,-4.9487105E-1,1.9708394E-1,2.5560079E0,4.0303805E-1,2.1383576E0,1.198968E0,-2.3828107E-1,-2.6300812E-1,-1.7163053E-1,-2.1598151E-1,-1.6277072E-1,-1.3060601E-1,-7.262518E-2,-2.982193E-3,-1.4951566E-1,-1.10892154E-1,-4.769523E-2,4.5462903E-2,1.0458143E-2,5.426534E-2,-7.847135E-2,-1.3342148E-1,-3.2316472E-2,-9.026734E-2,2.963892E-2,-3.1255983E-2,1.8112088E-2,-6.5221717E-3,3.7926205E-2,1.6039176E-1,2.899501E-2,-1.4737726E-3,7.5213745E-2,9.849304E-2,8.927363E-2,4.731881E-2],"categories":[],"categories_nodes":[],"categories_segments":[],"categories_sizes":[],"default_left":[0,0,0,0,0,0,0,0,0,0,0,0,0,0,0,0,0,0,0,0,0,0,0,0,0,0,0,0,0,0,0,0,0,0,0,0,0,0,0,0,0,0,0,0,0,0,0,0,0,0,0,0,0,0,0,0,0,0,0,0,0],"id":16,"left_children":[1,3,5,7,9,11,13,15,17,19,21,23,25,27,29,31,33,35,-1,37,39,41,43,45,47,49,51,53,55,57,59,-1,-1,-1,-1,-1,-1,-1,-1,-1,-1,-1,-1,-1,-1,-1,-1,-1,-1,-1,-1,-1,-1,-1,-1,-1,-1,-1,-1,-1,-1],"loss_changes":[2.5013729E4,5.966084E3,8.159371E3,5.3563477E2,1.9998711E3,3.0876487E3,2.63813E3,1.7574805E2,3.299463E1,5.460713E2,2.9785422E2,8.7183057E2,1.0318909E3,1.8120994E3,5.545371E2,1.1985352E1,2.6345703E1,1.1124634E1,0E0,1.1847209E2,2.0118457E2,1.10154144E2,4.425745E1,9.308105E0,7.802195E2,9.5398047E2,5.940344E2,8.5645483E2,1.6080532E3,5.417212E1,2.2730566E2,0E0,0E0,0E0,0E0,0E0,0E0,0E0,0E0,0E0,0E0,0E0,0E0,0E0,0E0,0E0,0E0,0E0,0E0,0E0,0E0,0E0,0E0,0E0,0E0,0E0,0E0,0E0,0E0,0E0,0E0],"parents":[2147483647,0,0,1,1,2,2,3,3,4,4,5,5,6,6,7,7,8,8,9,9,10,10,11,11,12,12,13,13,14,14,15,15,16,16,17,17,19,19,20,20,21,21,22,22,23,23,24,24,25,25,26,26,27,27,28,28,29,29,30,30],"right_children":[2,4,6,8,10,12,14,16,18,20,22,24,26,28,30,32,34,36,-1,38,40,42,44,46,48,50,52,54,56,58,60,-1,-1,-1,-1,-1,-1,-1,-1,-1,-1,-1,-1,-1,-1,-1,-1,-1,-1,-1,-1,-1,-1,-1,-1,-1,-1,-1,-1,-1,-1],"split_conditions":[-1.3491819E0,-1.8939238E0,6.2177543E-2,-9.5095724E-1,9.432461E-2,-6.8379277E-1,9.478656E-1,-2.6247382E0,-1.9424456E-1,-4.143005E-1,-2.1900732E-2,-1.1549602E0,-5.012119E-2,-1.7518427E0,-1.5895606E0,1.333146E0,1.1443771E0,-1.9923267E0,-5.9821047E-2,5.515191E-3,-6.928111E-1,7.814226E-1,1.1566718E0,6.533214E-1,1.2581768E0,-6.539518E-2,7.3135686E-1,8.660966E-1,2.5947106E-1,7.712836E-1,-1.4575658E0,-2.3828107E-1,-2.6300812E-1,-1.7163053E-1,-2.1598151E-1,-1.6277072E-1,-1.3060601E-1,-7.262518E-2,-2.982193E-3,-1.4951566E-1,-1.10892154E-1,-4.769523E-2,4.5462903E-2,1.0458143E-2,5.426534E-2,-7.847135E-2,-1.3342148E-1,-3.2316472E-2,-9.026734E-2,2.963892E-2,-3.1255983E-2,1.8112088E-2,-6.5221717E-3,3.7926205E-2,1.6039176E-1,2.899501E-2,-1.4737726E-3,7.5213745E-2,9.849304E-2,8.927363E-2,4.731881E-2],"split_indices":[59,112,58,116,112,81,81,115,8,77,13,117,44,114,117,76,69,59,0,54,79,115,88,83,66,64,83,69,66,64,109,0,0,0,0,0,0,0,0,0,0,0,0,0,0,0,0,0,0,0,0,0,0,0,0,0,0,0,0,0,0],"split_type":[0,0,0,0,0,0,0,0,0,0,0,0,0,0,0,0,0,0,0,0,0,0,0,0,0,0,0,0,0,0,0,0,0,0,0,0,0,0,0,0,0,0,0,0,0,0,0,0,0,0,0,0,0,0,0,0,0,0,0,0,0],"sum_hessian":[3.4503523E4,2.5356694E3,3.1967855E4,7.722958E2,1.7633737E3,1.4463174E4,1.7504682E4,6.433405E2,1.2895528E2,1.2162592E3,5.4711456E2,4.291876E3,1.0171298E4,1.2933378E4,4.571303E3,3.9762018E2,2.4572032E2,1.2035736E2,8.597922E0,1.8004991E2,1.0362092E3,3.407768E2,2.063378E2,1.8489555E2,4.1069805E3,3.0992776E3,7.07202E3,4.0316043E2,1.2530218E4,7.537167E2,3.8175867E3,1.2062634E2,2.7699384E2,4.0208782E1,2.0551155E2,6.946001E1,5.0897354E1,1.1126021E2,6.878971E1,3.7565482E2,6.605544E2,3.1748413E2,2.3292637E1,1.5195024E2,5.438755E1,8.284485E0,1.7661107E2,3.6533777E3,4.5360257E2,5.408944E2,2.558383E3,4.230527E3,2.8414934E3,1.7770842E2,2.2545201E2,7.513731E3,5.0164863E3,3.0539447E2,4.4832224E2,2.399558E2,3.5776309E3],"tree_param":{"num_deleted":"0","num_feature":"118","num_nodes":"61","size_leaf_vector":"1"}},{"base_weights":[-5.813344E-3,1.5967849E-1,-4.025004E0,-5.930558E-1,5.173715E-1,-5.261079E0,-2.9014084E0,-9.2168295E-1,1.2939088E-1,-1.6796372E0,5.9283495E-1,-5.4777117E0,-3.4506934E0,-3.246739E0,-2.0836513E0,-4.8720187E-1,-1.4506655E0,4.267033E-1,-9.838538E-2,-2.763312E0,-3.0281907E-1,3.7292477E-1,1.2021253E0,-5.8910985E0,-5.0151405E0,-1.6020493E-1,-2.6547458E0,-1.7367607E0,-3.3724966E0,-2.4050648E0,-7.923642E-1,-6.575233E-2,-1.212732E-2,-2.2125483E-2,-8.5771784E-2,2.5965014E-2,-6.8849856E-3,2.2343148E-3,-3.0505197E-2,-9.638235E-2,-2.1539898E-1,2.1296304E-2,-5.401047E-2,4.5498148E-2,9.058081E-3,4.0174957E-2,6.91234E-2,-2.4885763E-1,-2.1581039E-1,-1.702166E-1,-2.1618691E-1,-8.811071E-2,-1.2283118E-1,-1.498278E-2,-8.213813E-2,-1.6124931E-1,-1.2661907E-1,-1.2189346E-1,-8.024002E-2,-4.8558936E-2,1.819315E-2],"categories":[],"categories_nodes":[],"categories_segments":[],"categories_sizes":[],"default_left":[0,0,0,0,0,0,0,0,0,0,0,0,0,0,0,0,0,0,0,0,0,0,0,0,0,0,0,0,0,0,0,0,0,0,0,0,0,0,0,0,0,0,0,0,0,0,0,0,0,0,0,0,0,0,0,0,0,0,0,0,0],"id":17,"left_children":[1,3,5,7,9,11,13,15,17,19,21,23,25,27,29,31,33,35,37,39,41,43,45,47,49,-1,51,53,55,57,59,-1,-1,-1,-1,-1,-1,-1,-1,-1,-1,-1,-1,-1,-1,-1,-1,-1,-1,-1,-1,-1,-1,-1,-1,-1,-1,-1,-1,-1,-1],"loss_changes":[2.2861148E4,8.888024E3,1.8801191E3,2.5246943E3,3.7102573E3,2.4430078E2,1.9769482E2,1.6792402E3,2.2522781E2,1.1079543E3,2.8983564E3,9.620508E1,1.6737915E1,9.1782715E1,8.7113525E1,8.583275E2,1.8404253E3,1.6776276E2,1.8142513E2,4.443916E2,2.6537643E2,1.7775144E3,6.225801E2,2.5830078E0,3.3810547E1,0E0,5.198059E-1,1.2061165E1,7.061084E1,3.9340332E1,2.0105877E1,0E0,0E0,0E0,0E0,0E0,0E0,0E0,0E0,0E0,0E0,0E0,0E0,0E0,0E0,0E0,0E0,0E0,0E0,0E0,0E0,0E0,0E0,0E0,0E0,0E0,0E0,0E0,0E0,0E0,0E0],"parents":[2147483647,0,0,1,1,2,2,3,3,4,4,5,5,6,6,7,7,8,8,9,9,10,10,11,11,12,12,13,13,14,14,15,15,16,16,17,17,18,18,19,19,20,20,21,21,22,22,23,23,24,24,26,26,27,27,28,28,29,29,30,30],"right_children":[2,4,6,8,10,12,14,16,18,20,22,24,26,28,30,32,34,36,38,40,42,44,46,48,50,-1,52,54,56,58,60,-1,-1,-1,-1,-1,-1,-1,-1,-1,-1,-1,-1,-1,-1,-1,-1,-1,-1,-1,-1,-1,-1,-1,-1,-1,-1,-1,-1,-1,-1],"split_conditions":[1.4293166E-1,-3.4876382E-1,-2.0703962E0,1.4388539E-1,-1.4229927E0,-8.648314E-1,-1.8756593E0,-4.143005E-1,6.3372426E-2,-7.343443E-1,8.6164594E-1,-2.7435367E0,-1.9923267E0,-2.2278008E-1,-9.801562E-1,-1.5375563E0,2.5711206E-1,7.3135686E-1,7.218725E-1,1.1311802E0,2.7136056E-2,-1.0773312E0,1.2069134E0,-1.0350829E0,1.0388389E0,-1.6020493E-1,1.3308176E0,1.5458596E-1,-7.373845E-1,-8.660898E-1,-6.235697E-1,-6.575233E-2,-1.212732E-2,-2.2125483E-2,-8.5771784E-2,2.5965014E-2,-6.8849856E-3,2.2343148E-3,-3.0505197E-2,-9.638235E-2,-2.1539898E-1,2.1296304E-2,-5.401047E-2,4.5498148E-2,9.058081E-3,4.0174957E-2,6.91234E-2,-2.4885763E-1,-2.1581039E-1,-1.702166E-1,-2.1618691E-1,-8.811071E-2,-1.2283118E-1,-1.498278E-2,-8.213813E-2,-1.6124931E-1,-1.2661907E-1,-1.2189346E-1,-8.024002E-2,-4.8558936E-2,1.819315E-2],"split_indices":[74,58,112,81,81,116,59,77,108,64,81,115,59,70,112,115,64,83,114,76,62,108,81,109,66,0,70,77,80,109,59,0,0,0,0,0,0,0,0,0,0,0,0,0,0,0,0,0,0,0,0,0,0,0,0,0,0,0,0,0,0],"split_type":[0,0,0,0,0,0,0,0,0,0,0,0,0,0,0,0,0,0,0,0,0,0,0,0,0,0,0,0,0,0,0,0,0,0,0,0,0,0,0,0,0,0,0,0,0,0,0,0,0,0,0,0,0,0,0,0,0,0,0,0,0],"sum_hessian":[3.4368547E4,3.3009723E4,1.3588242E3,1.0632929E4,2.2376795E4,6.4622504E2,7.1259924E2,7.30852E3,3.3244084E3,7.4271686E2,2.1634078E4,5.7632587E2,6.989916E1,5.0001364E2,2.1258559E2,4.013291E3,3.295229E3,1.4422166E3,1.8821919E3,4.15303E2,3.2741382E2,1.5897243E4,5.736836E3,3.0156586E2,2.7476E2,4.5571613E1,2.4327547E1,3.9013733E1,4.609999E2,1.698317E2,4.2753895E1,6.113852E2,3.4019058E3,1.3110836E3,1.9841455E3,1.0831748E3,3.5904172E2,1.5181342E3,3.6405768E2,3.505222E2,6.4780815E1,1.7998163E2,1.4743219E2,2.8278882E3,1.30693545E4,3.77129E3,1.9655459E3,2.6805853E2,3.3507317E1,4.4676422E1,2.3008357E2,9.941573E0,1.4385975E1,5.9192495E0,3.3094486E1,1.8346626E2,2.7753366E2,8.032867E1,8.950303E1,3.2915287E1,9.83861E0],"tree_param":{"num_deleted":"0","num_feature":"118","num_nodes":"61","size_leaf_vector":"1"}},{"base_weights":[-7.559803E-3,-2.3226304E0,2.5551257E-1,-3.8693373E0,-1.1222333E0,-1.441354E-1,7.466053E-1,-5.175321E0,-2.97905E0,-1.9070698E0,-2.994601E-1,-8.492775E-1,7.178207E-2,4.498916E-1,1.271531E0,-5.6531124E0,-4.420826E0,-3.5989976E0,-2.6122272E0,-2.3088667E0,-8.4494364E-1,-7.3557985E-1,3.6611664E-1,-6.147663E-1,-1.5924498E0,4.2470255E-1,-2.0656928E-1,6.8812275E-1,-3.9111417E-2,2.914122E0,1.1025316E0,-2.3233977E-1,-2.8719842E-1,-1.4880838E-1,-1.9697262E-1,-1.8026178E-1,-1.3933313E-1,-1.1214423E-1,-2.3454394E-2,-8.260052E-2,-1.28172E-1,-6.535812E-3,-5.758709E-2,-3.9180532E-2,2.1109661E-2,2.9121725E-2,-1.049344E-2,-9.659548E-2,-1.7674236E-2,-2.0642042E-2,-8.025068E-2,3.0535107E-2,-3.472657E-3,-7.170267E-5,-3.5162583E-2,3.8579136E-2,1.6790267E-2,-4.132429E-2,1.1957632E-2,4.838983E-2,1.705882E-1,5.6997243E-2,1.670641E-2],"categories":[],"categories_nodes":[],"categories_segments":[],"categories_sizes":[],"default_left":[0,0,0,0,0,0,0,0,0,0,0,0,0,0,0,0,0,0,0,0,0,0,0,0,0,0,0,0,0,0,0,0,0,0,0,0,0,0,0,0,0,0,0,0,0,0,0,0,0,0,0,0,0,0,0,0,0,0,0,0,0,0,0],"id":18,"left_children":[1,3,5,7,9,11,13,15,17,19,21,23,25,27,29,31,33,35,37,39,41,43,45,47,49,51,53,55,57,59,61,-1,-1,-1,-1,-1,-1,-1,-1,-1,-1,-1,-1,-1,-1,-1,-1,-1,-1,-1,-1,-1,-1,-1,-1,-1,-1,-1,-1,-1,-1,-1,-1],"loss_changes":[2.0913732E4,6.5031094E3,6.051917E3,1.772252E3,1.2737915E3,2.5884963E3,2.1543164E3,2.1143945E2,2.0235742E2,4.296631E2,2.800077E2,6.9384766E2,1.2786426E3,1.0298895E3,1.3848228E3,1.8498047E1,5.4611816E1,5.5439453E1,9.147803E1,1.801731E2,1.0235063E2,1.4832516E2,7.861837E1,9.831876E2,3.4852222E2,8.9815186E2,9.496017E2,4.02469E2,8.9952655E2,9.598313E2,8.4228174E2,0E0,0E0,0E0,0E0,0E0,0E0,0E0,0E0,0E0,0E0,0E0,0E0,0E0,0E0,0E0,0E0,0E0,0E0,0E0,0E0,0E0,0E0,0E0,0E0,0E0,0E0,0E0,0E0,0E0,0E0,0E0,0E0],"parents":[2147483647,0,0,1,1,2,2,3,3,4,4,5,5,6,6,7,7,8,8,9,9,10,10,11,11,12,12,13,13,14,14,15,15,16,16,17,17,18,18,19,19,20,20,21,21,22,22,23,23,24,24,25,25,26,26,27,27,28,28,29,29,30,30],"right_children":[2,4,6,8,10,12,14,16,18,20,22,24,26,28,30,32,34,36,38,40,42,44,46,48,50,52,54,56,58,60,62,-1,-1,-1,-1,-1,-1,-1,-1,-1,-1,-1,-1,-1,-1,-1,-1,-1,-1,-1,-1,-1,-1,-1,-1,-1,-1,-1,-1,-1,-1,-1,-1],"split_conditions":[-1.1610978E0,-1.1588895E0,3.3385104E-1,-9.3479335E-1,1.8031922E-1,-8.009964E-1,3.5698038E-1,-2.6247382E0,-6.883044E-1,5.617364E-1,-3.4895945E-2,6.9709665E-1,6.3372426E-2,2.066526E-1,-1.2125193E0,-1.0175298E0,-1.5237603E0,-1.8939238E0,5.515191E-3,6.612092E-1,6.336537E-2,6.868536E-1,3.5574737E-1,-6.277284E-1,-1.05627835E-1,2.066526E-1,3.302069E-1,-6.2634635E-1,-6.126001E-1,9.4018495E-1,2.7693227E-1,-2.3233977E-1,-2.8719842E-1,-1.4880838E-1,-1.9697262E-1,-1.8026178E-1,-1.3933313E-1,-1.1214423E-1,-2.3454394E-2,-8.260052E-2,-1.28172E-1,-6.535812E-3,-5.758709E-2,-3.9180532E-2,2.1109661E-2,2.9121725E-2,-1.049344E-2,-9.659548E-2,-1.7674236E-2,-2.0642042E-2,-8.025068E-2,3.0535107E-2,-3.472657E-3,-7.170267E-5,-3.5162583E-2,3.8579136E-2,1.6790267E-2,-4.132429E-2,1.1957632E-2,4.838983E-2,1.705882E-1,5.6997243E-2,1.670641E-2],"split_indices":[59,112,58,80,112,81,105,115,79,73,13,109,108,66,115,56,56,112,54,95,69,115,67,56,69,66,67,80,109,69,83,0,0,0,0,0,0,0,0,0,0,0,0,0,0,0,0,0,0,0,0,0,0,0,0,0,0,0,0,0,0,0,0],"split_type":[0,0,0,0,0,0,0,0,0,0,0,0,0,0,0,0,0,0,0,0,0,0,0,0,0,0,0,0,0,0,0,0,0,0,0,0,0,0,0,0,0,0,0,0,0,0,0,0,0,0,0,0,0,0,0,0,0,0,0,0,0,0,0],"sum_hessian":[3.4337996E4,3.5035557E3,3.0834441E4,1.5304788E3,1.973077E3,1.6999965E4,1.3834477E4,6.195106E2,9.1096814E2,1.0094402E3,9.6363684E2,3.9850598E3,1.3014906E4,8.839201E3,4.9952754E3,3.7751578E2,2.4199486E2,3.3711307E2,5.7385504E2,7.319208E2,2.7751938E2,5.822826E2,3.8135428E2,3.0299275E3,9.551324E2,5.738905E3,7.276001E3,5.9437056E3,2.8954949E3,4.6527762E2,4.5299976E3,3.5741138E2,2.0104391E1,6.552298E1,1.7647188E2,8.586825E1,2.5124481E2,5.5243713E2,2.1417885E1,5.143393E2,2.1758151E2,1.219903E2,1.5552908E2,5.0014035E2,8.2142235E1,2.4802101E2,1.3333325E2,3.045162E2,2.7254111E3,2.228385E2,7.322939E2,3.572936E3,2.1659688E3,5.5063594E3,1.769642E3,3.2418872E3,2.7018186E3,7.3829175E2,2.1572031E3,1.8749825E2,2.777794E2,3.2872673E3,1.2427305E3],"tree_param":{"num_deleted":"0","num_feature":"118","num_nodes":"63","size_leaf_vector":"1"}},{"base_weights":[-8.708403E-4,1.508107E-1,-3.6715527E0,-5.7922816E-1,4.707133E-1,-5.051944E0,-2.8685784E0,-3.668069E-1,-1.6132979E0,2.5142303E-1,1.1208142E0,-5.234728E0,-3.8424325E0,-3.36843E0,-2.3625185E0,-5.431789E-2,-8.394945E-1,-9.29848E-1,-2.685925E0,-1.5033965E0,3.323621E-1,8.9168936E-1,1.5556482E0,-5.029977E0,-2.3478125E-1,-1.367645E-1,-1.7398135E-1,-4.260945E0,-3.1055048E0,-1.7208518E0,-2.7886508E0,-6.8554245E-2,2.258614E-3,-1.741924E-2,-5.1185504E-2,-4.976784E-2,7.9361815E-4,-1.1689146E-1,-2.6904047E-2,-1.3516058E-1,-3.577858E-2,3.1456288E-2,4.096634E-3,4.0466912E-2,2.0508558E-2,6.8736345E-2,1.34917265E-2,-2.1273437E-1,-1.7600246E-1,-1.8930754E-1,-1.295159E-1,-1.3864626E-1,-9.64472E-2,-8.051744E-2,-1.4514132E-2,-1.2220259E-1,-4.30516E-2],"categories":[],"categories_nodes":[],"categories_segments":[],"categories_sizes":[],"default_left":[0,0,0,0,0,0,0,0,0,0,0,0,0,0,0,0,0,0,0,0,0,0,0,0,0,0,0,0,0,0,0,0,0,0,0,0,0,0,0,0,0,0,0,0,0,0,0,0,0,0,0,0,0,0,0,0,0],"id":19,"left_children":[1,3,5,7,9,11,13,15,17,19,21,23,25,27,29,31,33,35,37,39,41,43,45,47,-1,-1,-1,49,51,53,55,-1,-1,-1,-1,-1,-1,-1,-1,-1,-1,-1,-1,-1,-1,-1,-1,-1,-1,-1,-1,-1,-1,-1,-1,-1,-1],"loss_changes":[1.9129459E4,7.7053867E3,1.5039219E3,2.207591E3,3.2701646E3,1.0087598E2,2.1408545E2,1.2317677E3,1.254083E3,2.4366477E3,5.755298E2,2.1891602E1,5.666748E0,9.493115E1,1.1498096E2,8.6703876E2,5.433491E2,2.6280023E2,1.6036377E2,8.468273E2,1.6213442E3,1.1972046E2,2.2984424E2,7.022949E0,0E0,0E0,0E0,2.447815E1,5.4774902E1,4.9513855E1,6.3126343E1,0E0,0E0,0E0,0E0,0E0,0E0,0E0,0E0,0E0,0E0,0E0,0E0,0E0,0E0,0E0,0E0,0E0,0E0,0E0,0E0,0E0,0E0,0E0,0E0,0E0,0E0],"parents":[2147483647,0,0,1,1,2,2,3,3,4,4,5,5,6,6,7,7,8,8,9,9,10,10,11,11,12,12,13,13,14,14,15,15,16,16,17,17,18,18,19,19,20,20,21,21,22,22,23,23,27,27,28,28,29,29,30,30],"right_children":[2,4,6,8,10,12,14,16,18,20,22,24,26,28,30,32,34,36,38,40,42,44,46,48,-1,-1,-1,50,52,54,56,-1,-1,-1,-1,-1,-1,-1,-1,-1,-1,-1,-1,-1,-1,-1,-1,-1,-1,-1,-1,-1,-1,-1,-1,-1,-1],"split_conditions":[1.4293166E-1,-4.143499E-1,-1.0478864E0,1.5638862E0,8.6164594E-1,-2.406534E0,-1.1166687E0,-6.4476416E-2,-6.6188805E-2,-1.4229927E0,1.2069134E0,1.4250513E0,-1.5237603E0,-2.184923E0,-2.6429215E-1,-1.5868945E0,6.3372426E-2,-1.4271191E-1,1.3308209E0,-5.991319E-1,-5.2810353E-1,2.1130573E-2,1.6265589E0,-2.8428757E-1,-2.3478125E-1,-1.367645E-1,-1.7398135E-1,-2.0883217E0,-1.7767802E0,-8.28453E-1,-4.8585525E-1,-6.8554245E-2,2.258614E-3,-1.741924E-2,-5.1185504E-2,-4.976784E-2,7.9361815E-4,-1.1689146E-1,-2.6904047E-2,-1.3516058E-1,-3.577858E-2,3.1456288E-2,4.096634E-3,4.0466912E-2,2.0508558E-2,6.8736345E-2,1.34917265E-2,-2.1273437E-1,-1.7600246E-1,-1.8930754E-1,-1.295159E-1,-1.3864626E-1,-9.64472E-2,-8.051744E-2,-1.4514132E-2,-1.2220259E-1,-4.30516E-2],"split_indices":[74,58,116,116,81,81,83,30,30,81,81,76,56,81,66,81,108,74,108,116,108,69,108,67,0,0,0,59,59,75,109,0,0,0,0,0,0,0,0,0,0,0,0,0,0,0,0,0,0,0,0,0,0,0,0,0,0],"split_type":[0,0,0,0,0,0,0,0,0,0,0,0,0,0,0,0,0,0,0,0,0,0,0,0,0,0,0,0,0,0,0,0,0,0,0,0,0,0,0,0,0,0,0,0,0,0,0,0,0,0,0,0,0,0,0,0,0],"sum_hessian":[3.435582E4,3.2992836E4,1.362984E3,1.0052209E4,2.2940629E4,5.0037595E2,8.6260803E2,8.339753E3,1.7124563E3,1.7154828E4,5.7858E3,4.333613E2,6.701463E1,4.3261865E2,4.299894E2,5.021129E3,3.3186238E3,1.0465494E3,6.6590686E2,7.5595135E2,1.6398877E4,3.7902542E3,1.9955457E3,2.9039676E2,1.4296455E2,2.6805855E1,4.0208782E1,9.685853E1,3.357601E2,1.7258621E2,2.574032E2,3.203749E2,4.7007544E3,1.5927305E3,1.7258934E3,8.1856885E2,2.2798059E2,6.290178E2,3.6889053E1,2.0390799E2,5.520434E2,5.8461523E3,1.0552725E4,3.1616562E3,6.2859796E2,1.8542567E3,1.4128893E2,2.6359088E2,2.6805855E1,7.6754135E1,2.0104391E1,2.6116492E2,7.45952E1,1.4932841E2,2.3257793E1,2.3759756E2,1.9805634E1],"tree_param":{"num_deleted":"0","num_feature":"118","num_nodes":"57","size_leaf_vector":"1"}},{"base_weights":[-1.1983052E-3,-2.1235616E0,2.3895362E-1,-3.310563E0,-7.951558E-1,-8.727505E-2,7.594649E-1,-4.546495E0,-2.442828E0,-1.2721199E0,5.422696E-2,-7.700453E-1,1.1489508E-1,4.5479304E-1,1.324247E0,-5.0233245E0,-3.6424868E0,-2.2573777E-1,-2.5184445E0,-1.680308E0,-4.7412682E-1,-1.8395247E0,1.5108603E-1,-2.0623727E0,-6.1273444E-1,4.0804672E-1,-1.9107047E-1,7.140986E-1,-5.198332E-2,2.034997E0,9.89073E-1,-2.210913E-1,-1.8993957E-1,-1.6032092E-1,-1.1122684E-1,-5.3992376E-2,2.6065823E-2,-1.2824431E-1,-9.907245E-2,-6.1152E-2,-1.1131535E-1,-7.260079E-3,-5.784523E-2,-5.3149488E-2,-1.12801954E-1,4.5764215E-2,1.9377354E-3,-9.455522E-2,-3.227508E-3,1.7197955E-2,-3.7208345E-2,2.8935997E-2,6.208522E-3,2.4240725E-2,-1.45525485E-2,3.7367545E-2,1.6085325E-2,-9.71308E-2,1.2413346E-3,1.2877564E-1,6.789215E-2,5.1941596E-2,2.6016472E-2],"categories":[],"categories_nodes":[],"categories_segments":[],"categories_sizes":[],"default_left":[0,0,0,0,0,0,0,0,0,0,0,0,0,0,0,0,0,0,0,0,0,0,0,0,0,0,0,0,0,0,0,0,0,0,0,0,0,0,0,0,0,0,0,0,0,0,0,0,0,0,0,0,0,0,0,0,0,0,0,0,0,0,0],"id":20,"left_children":[1,3,5,7,9,11,13,15,17,19,21,23,25,27,29,31,33,35,37,39,41,43,45,47,49,51,53,55,57,59,61,-1,-1,-1,-1,-1,-1,-1,-1,-1,-1,-1,-1,-1,-1,-1,-1,-1,-1,-1,-1,-1,-1,-1,-1,-1,-1,-1,-1,-1,-1,-1,-1],"loss_changes":[1.7507773E4,5.504052E3,5.2399277E3,1.9716699E3,6.679929E2,2.618552E3,2.0452388E3,3.18583E2,1.8111084E2,3.4321094E2,1.08635796E2,8.801145E2,1.3128036E3,1.0150819E3,9.9106055E2,5.3467773E1,4.724878E1,3.3487656E1,7.880078E1,1.4501428E2,9.777656E1,1.2034294E1,5.5730633E1,1.9221252E2,1.1100397E3,5.542019E2,8.750542E2,3.057046E2,4.8753616E2,5.6859326E2,2.6515576E2,0E0,0E0,0E0,0E0,0E0,0E0,0E0,0E0,0E0,0E0,0E0,0E0,0E0,0E0,0E0,0E0,0E0,0E0,0E0,0E0,0E0,0E0,0E0,0E0,0E0,0E0,0E0,0E0,0E0,0E0,0E0,0E0],"parents":[2147483647,0,0,1,1,2,2,3,3,4,4,5,5,6,6,7,7,8,8,9,9,10,10,11,11,12,12,13,13,14,14,15,15,16,16,17,17,18,18,19,19,20,20,21,21,22,22,23,23,24,24,25,25,26,26,27,27,28,28,29,29,30,30],"right_children":[2,4,6,8,10,12,14,16,18,20,22,24,26,28,30,32,34,36,38,40,42,44,46,48,50,52,54,56,58,60,62,-1,-1,-1,-1,-1,-1,-1,-1,-1,-1,-1,-1,-1,-1,-1,-1,-1,-1,-1,-1,-1,-1,-1,-1,-1,-1,-1,-1,-1,-1,-1,-1],"split_conditions":[-1.1610978E0,-8.055032E-1,4.816228E-1,-8.5484135E-1,6.896039E-1,-8.009964E-1,-6.4476416E-2,-2.406534E0,-6.362751E-2,5.617364E-1,-3.333523E0,-5.570415E-1,4.16596E-1,1.1352739E-1,-7.1875244E-1,-2.7435367E0,-1.7767802E0,-1.1383065E0,-1.5237603E0,1.7817273E0,2.8089643E0,3.1522432E-1,-1.3000947E0,-2.6661154E-2,2.2455311E-1,6.3372426E-2,-9.0833807E-1,-4.8296437E-1,-2.0482445E0,-1.1195796E0,2.8249618E-1,-2.210913E-1,-1.8993957E-1,-1.6032092E-1,-1.1122684E-1,-5.3992376E-2,2.6065823E-2,-1.2824431E-1,-9.907245E-2,-6.1152E-2,-1.1131535E-1,-7.260079E-3,-5.784523E-2,-5.3149488E-2,-1.12801954E-1,4.5764215E-2,1.9377354E-3,-9.455522E-2,-3.227508E-3,1.7197955E-2,-3.7208345E-2,2.8935997E-2,6.208522E-3,2.4240725E-2,-1.45525485E-2,3.7367545E-2,1.6085325E-2,-9.71308E-2,1.2413346E-3,1.2877564E-1,6.789215E-2,5.1941596E-2,2.6016472E-2],"split_indices":[59,112,58,80,112,81,30,81,53,73,105,56,83,66,114,115,59,70,56,80,80,89,98,43,116,108,108,83,115,108,66,0,0,0,0,0,0,0,0,0,0,0,0,0,0,0,0,0,0,0,0,0,0,0,0,0,0,0,0,0,0,0,0],"split_type":[0,0,0,0,0,0,0,0,0,0,0,0,0,0,0,0,0,0,0,0,0,0,0,0,0,0,0,0,0,0,0,0,0,0,0,0,0,0,0,0,0,0,0,0,0,0,0,0,0,0,0,0,0,0,0,0,0,0,0,0,0,0,0],"sum_hessian":[3.4348465E4,3.4912847E3,3.085718E4,1.8433821E3,1.6479026E3,1.896868E4,1.1888501E4,7.59564E2,1.0838181E3,1.0552869E3,5.926158E2,4.333417E3,1.4635263E4,7.7232305E3,4.16527E3,4.959083E2,2.636557E2,3.5868103E1,1.04795E3,6.977289E2,3.5755795E2,2.8390726E1,5.6422504E2,4.6959308E2,3.8638242E3,7.4743257E3,7.160937E3,5.109137E3,2.6140935E3,1.3339619E3,2.831308E3,3.060335E2,1.898748E2,2.1674545E2,4.6910244E1,1.5875951E1,1.9992151E1,2.0939053E2,8.3855945E2,5.7527057E2,1.2245834E2,2.6971118E2,8.784679E1,1.7935902E1,1.04548235E1,5.5572502E1,5.0865256E2,4.252195E2,4.4373566E1,8.2880255E2,3.0350215E3,3.550119E3,3.9242065E3,1.2160458E3,5.944891E3,3.2820845E3,1.8270525E3,9.0220924E1,2.5238726E3,3.6976593E2,9.64196E2,1.6595176E3,1.1717906E3],"tree_param":{"num_deleted":"0","num_feature":"118","num_nodes":"63","size_leaf_vector":"1"}},{"base_weights":[-7.307696E-3,1.2687837E-1,-3.3710635E0,-6.4701617E-1,3.9213857E-1,-4.4148793E0,-2.4658382E0,-2.690183E-1,-1.2481841E0,-1.509358E0,4.618427E-1,-4.646113E0,-3.35501E0,-2.6111522E0,-1.2130353E0,-1.3439757E0,-1.038544E-1,-9.796098E-1,-2.6807916E0,-2.5660093E0,-2.845677E-1,2.7273208E-1,1.0102736E0,-4.966692E0,-4.224521E0,-1.5274994E-1,-2.4637141E0,-2.7425826E0,-1.6304635E0,-1.4717993E0,1.3432752E-2,-1.4346917E-2,-7.691638E-2,-3.6269758E-4,-5.163385E-2,-1.7877681E-2,-5.813323E-2,-1.1395327E-1,-5.5296817E-3,-2.0173505E-1,-8.95751E-2,2.0292802E-2,-4.9605697E-2,2.5523195E-2,-2.2968641E-4,3.3530142E-2,5.9671886E-2,-2.0999257E-1,-1.8028006E-1,-1.399048E-1,-1.80284E-1,-1.1089652E-1,-6.350272E-2,-1.19741455E-1,-8.537231E-2,-9.392502E-2,-4.7064733E-2,-3.3012293E-2,-7.276536E-2],"categories":[],"categories_nodes":[],"categories_segments":[],"categories_sizes":[],"default_left":[0,0,0,0,0,0,0,0,0,0,0,0,0,0,0,0,0,0,0,0,0,0,0,0,0,0,0,0,0,0,0,0,0,0,0,0,0,0,0,0,0,0,0,0,0,0,0,0,0,0,0,0,0,0,0,0,0,0,0],"id":21,"left_children":[1,3,5,7,9,11,13,15,17,19,21,23,25,27,29,31,33,35,37,39,41,43,45,47,49,-1,51,53,55,57,-1,-1,-1,-1,-1,-1,-1,-1,-1,-1,-1,-1,-1,-1,-1,-1,-1,-1,-1,-1,-1,-1,-1,-1,-1,-1,-1,-1,-1],"loss_changes":[1.5507827E4,6.7822666E3,1.2397334E3,1.9160618E3,3.2613472E3,1.4209668E2,1.2677051E2,9.191371E2,1.2508916E3,1.1253025E3,2.4613882E3,5.746289E1,2.6003052E1,7.903223E1,2.9920609E1,3.4520178E2,4.8469247E2,6.2656006E2,6.946948E1,4.371272E2,2.8231873E2,1.6683932E3,5.269175E2,2.4365234E0,1.2019287E1,0E0,3.2372131E0,4.7308594E1,2.214206E1,1.0919891E1,0E0,0E0,0E0,0E0,0E0,0E0,0E0,0E0,0E0,0E0,0E0,0E0,0E0,0E0,0E0,0E0,0E0,0E0,0E0,0E0,0E0,0E0,0E0,0E0,0E0,0E0,0E0,0E0,0E0],"parents":[2147483647,0,0,1,1,2,2,3,3,4,4,5,5,6,6,7,7,8,8,9,9,10,10,11,11,12,12,13,13,14,14,15,15,16,16,17,17,18,18,19,19,20,20,21,21,22,22,23,23,24,24,26,26,27,27,28,28,29,29],"right_children":[2,4,6,8,10,12,14,16,18,20,22,24,26,28,30,32,34,36,38,40,42,44,46,48,50,-1,52,54,56,58,-1,-1,-1,-1,-1,-1,-1,-1,-1,-1,-1,-1,-1,-1,-1,-1,-1,-1,-1,-1,-1,-1,-1,-1,-1,-1,-1,-1,-1],"split_conditions":[1.4293166E-1,-5.856371E-1,-2.0703962E0,-4.143005E-1,-1.4229927E0,-1.6560394E0,-1.3057426E0,-1.3502743E0,1.7817273E0,-7.983974E-1,8.420893E-1,-2.7435367E0,-1.3757055E0,-3.1686214E-1,-5.566388E-1,-2.2159377E-2,2.4323893E0,2.7398413E-1,1.3308209E0,-1.6968943E0,2.7136056E-2,-2.3236556E-1,1.2069134E0,-1.0350829E0,2.5075538E0,-1.5274994E-1,1.3600794E0,-1.2288783E0,-1.5237603E0,-2.731936E-1,1.3432752E-2,-1.4346917E-2,-7.691638E-2,-3.6269758E-4,-5.163385E-2,-1.7877681E-2,-5.813323E-2,-1.1395327E-1,-5.5296817E-3,-2.0173505E-1,-8.95751E-2,2.0292802E-2,-4.9605697E-2,2.5523195E-2,-2.2968641E-4,3.3530142E-2,5.9671886E-2,-2.0999257E-1,-1.8028006E-1,-1.399048E-1,-1.80284E-1,-1.1089652E-1,-6.350272E-2,-1.19741455E-1,-8.537231E-2,-9.392502E-2,-4.7064733E-2,-3.3012293E-2,-7.276536E-2],"split_indices":[74,58,112,77,81,114,81,112,80,64,81,115,56,109,115,70,80,64,108,114,62,108,81,109,57,0,66,56,56,70,0,0,0,0,0,0,0,0,0,0,0,0,0,0,0,0,0,0,0,0,0,0,0,0,0,0,0,0,0],"split_type":[0,0,0,0,0,0,0,0,0,0,0,0,0,0,0,0,0,0,0,0,0,0,0,0,0,0,0,0,0,0,0,0,0,0,0,0,0,0,0,0,0,0,0,0,0,0,0,0,0,0,0,0,0,0,0,0,0,0,0],"sum_hessian":[3.4355383E4,3.3037805E4,1.3175773E3,8.433105E3,2.4604701E4,6.1110925E2,7.06468E2,5.178114E3,3.254992E3,8.696684E2,2.3735033E4,5.0037595E2,1.1073333E2,6.325231E2,7.394492E1,6.891171E2,4.4889966E3,2.7417954E3,5.1319653E2,4.665667E2,4.0310168E2,1.7649887E4,6.085146E3,2.8146146E2,2.1891447E2,8.104398E1,2.9689342E1,5.569681E2,7.5555E1,6.3380512E1,1.0564414E1,2.305908E2,4.5852628E2,4.1423213E3,3.4667532E2,1.1793632E3,1.5624321E3,5.0254727E2,1.0649246E1,7.148228E1,3.9508444E2,2.1769453E2,1.8540715E2,7.947284E3,9.702603E3,4.0906084E3,1.9945376E3,2.5018797E2,3.1273497E1,2.4572033E1,1.9434244E2,2.3768854E1,5.9204874E0,4.6744833E2,8.9519745E1,3.288272E1,4.267228E1,1.8850775E1,4.4529736E1],"tree_param":{"num_deleted":"0","num_feature":"118","num_nodes":"59","size_leaf_vector":"1"}},{"base_weights":[3.3127135E-3,1.380789E-1,-3.268404E0,-4.7548583E-1,4.4044065E-1,-4.4304166E0,-2.540798E0,-7.592686E-1,1.3917409E-1,2.4188752E-1,9.8802435E-1,-3.0903885E0,-4.5834217E0,-1.9389541E0,-2.884487E0,-3.9140615E-1,-1.202405E0,8.966675E-2,1.0301304E0,-1.35279E0,3.144638E-1,1.7444187E0,8.700736E-1,-7.0872836E-2,-1.4212434E-1,-1.9775797E-1,-3.935485E0,-2.1370022E0,-8.746706E-1,-2.99866E0,-1.7425306E0,-4.7365896E-2,-7.697386E-3,-2.189187E-2,-7.13431E-2,1.2780744E-2,-3.9098617E-3,3.2611508E-2,7.885455E-2,-1.2181062E-1,-3.0214293E-2,4.0252466E-2,7.6317983E-3,2.8039638E-2,7.5762E-2,9.2128135E-2,3.509678E-2,-1.4717351E-1,-1.7721842E-1,-9.616305E-2,-4.6023842E-2,-1.1108169E-1,-2.5522282E-2,-1.1149706E-1,-1.3663316E-1,-8.695252E-2,-4.0087387E-2],"categories":[],"categories_nodes":[],"categories_segments":[],"categories_sizes":[],"default_left":[0,0,0,0,0,0,0,0,0,0,0,0,0,0,0,0,0,0,0,0,0,0,0,0,0,0,0,0,0,0,0,0,0,0,0,0,0,0,0,0,0,0,0,0,0,0,0,0,0,0,0,0,0,0,0,0,0],"id":22,"left_children":[1,3,5,7,9,11,13,15,17,19,21,23,25,27,29,31,33,35,37,39,41,43,45,-1,-1,-1,47,49,51,53,55,-1,-1,-1,-1,-1,-1,-1,-1,-1,-1,-1,-1,-1,-1,-1,-1,-1,-1,-1,-1,-1,-1,-1,-1,-1,-1],"loss_changes":[1.5191645E4,6.1393857E3,1.1466719E3,1.9056897E3,2.4099844E3,1.0035449E2,1.7051514E2,1.2179312E3,1.5199936E2,1.8830569E3,5.252461E2,2.1282837E1,4.0052734E1,6.3358887E1,6.65957E1,6.288611E2,1.1686694E3,1.3023933E2,3.7696182E1,6.9664294E2,1.3311597E3,6.173584E1,1.8979639E2,0E0,0E0,0E0,4.8513184E0,4.3818237E1,2.1786362E1,3.9194336E1,1.2001373E1,0E0,0E0,0E0,0E0,0E0,0E0,0E0,0E0,0E0,0E0,0E0,0E0,0E0,0E0,0E0,0E0,0E0,0E0,0E0,0E0,0E0,0E0,0E0,0E0,0E0,0E0],"parents":[2147483647,0,0,1,1,2,2,3,3,4,4,5,5,6,6,7,7,8,8,9,9,10,10,11,11,12,12,13,13,14,14,15,15,16,16,17,17,18,18,19,19,20,20,21,21,22,22,26,26,27,27,28,28,29,29,30,30],"right_children":[2,4,6,8,10,12,14,16,18,